svm_type c_svc
kernel_type rbf
gamma 0.00012207
nr_class 3
total_sv 339
rho -1.88982 -9.47811 20.2837
label 0 1 2
probA 20.636 -0.398241 -1.08188
probB 22.2543 0.286557 0.0206913
nr_sv 63 165 111
SV
32768 32768 1:-0.129089 2:0.12466 3:-0.131124 4:-0.528621 5:-0.0807742 6:-0.209024 7:-0.679668 8:-0.0898641 9:-0.303437 10:-0.548512 11:-0.589934 12:-0.890431 13:-0.632827 14:0.35988 15:-0.715897 16:-0.686653 
32768 32768 1:0.0487553 2:-0.478719 3:-0.513701 4:-0.819393 5:-0.493384 6:-0.284139 7:-0.621966 8:-0.457618 9:-0.304979 10:-0.251891 11:-0.266442 12:-0.679938 13:-0.419328 14:0.275016 15:-0.855201 16:-0.113049 
32768 32768 1:-0.138784 2:0.229069 3:0.134674 4:-0.294209 5:0.0891249 6:-0.594617 7:-0.85975 8:0.299181 9:-0.433328 10:-0.359576 11:-0.312223 12:-0.735719 13:-0.351378 14:0.47193 15:-0.846388 16:-0.60547 
32768 32768 1:-0.0438908 2:-0.636122 3:-0.835087 4:-0.963892 5:-0.830768 6:-0.101794 7:-0.584699 8:-0.850359 9:-0.244743 10:-0.700969 11:-0.00287897 12:-0.589626 13:-0.219122 14:0.0557551 15:-0.977839 16:-0.253244 
32768 32768 1:-0.0543337 2:-0.471672 3:-0.68424 4:-0.89408 5:-0.629454 6:0.748871 7:0.707182 8:-0.747507 9:-0.271892 10:-0.614699 11:-0.0382385 12:-0.657712 13:-0.394996 14:0.0962787 15:-0.964213 16:-0.463098 
32768 32768 1:-0.030404 2:-0.581222 3:-0.403349 4:-0.725033 5:-0.366014 6:0.527699 7:-0.0189339 8:-0.699059 9:-0.306485 10:-0.0588827 11:-0.0619412 12:-0.603409 13:-0.299445 14:-0.130139 15:-0.837053 16:-0.0259398 
32768 32768 1:-0.055462 2:-0.0103871 3:0.193492 4:-0.15744 5:0.202656 6:0.0332214 7:-0.443925 8:-0.0826337 9:-0.277666 10:-0.703332 11:-0.451324 12:-0.80467 13:-0.563727 14:0.483795 15:-0.256838 16:-0.732474 
32768 32768 1:0.0850977 2:-0.545532 3:-0.23226 4:-0.579034 5:-0.157906 6:0.329515 7:-0.173999 8:-0.433059 9:-0.268765 10:-0.671113 11:-0.193756 12:-0.721876 13:-0.467475 14:0.135309 15:-0.943707 16:-0.619908 
32768 32768 1:-0.0561211 2:-0.609924 3:-0.818343 4:-0.949196 5:-0.784055 6:0.363822 7:-0.110939 8:-0.818593 9:-0.490068 10:-0.192217 11:0.130752 12:-0.500183 13:-0.167325 14:0.186078 15:-0.964302 16:-0.348416 
32768 32768 1:-0.0563633 2:-0.525102 3:-0.784373 4:-0.948864 5:-0.77442 6:-0.113603 7:-0.540911 8:-0.765594 9:-0.281373 10:-0.336147 11:0.291408 12:-0.376248 13:-0.167921 14:0.0758256 15:-0.942237 16:-0.215403 
32768 32768 1:-0.181074 2:-0.143708 3:-0.119574 4:-0.56278 5:-0.149036 6:-0.0773011 7:-0.45968 8:-0.351463 9:-0.39966 10:0.267774 11:-0.0693519 12:-0.624454 13:-0.27648 14:0.234159 15:-0.876062 16:0.361483 
32768 32768 1:-0.18312 2:-0.166146 3:-0.474237 4:-0.786814 5:-0.383366 6:0.15188 7:-0.36404 8:-0.502007 9:-0.390675 10:-0.064171 11:-0.585261 12:-0.911951 13:-0.437157 14:0.331484 15:-0.910467 16:-0.288888 
32768 32768 1:-0.18685 2:0.0987382 3:0.262128 4:-0.105143 5:0.266198 6:0.108239 7:-0.432363 8:-0.0804932 9:-0.385658 10:-0.338702 11:-0.571801 12:-0.90213 13:-0.490711 14:0.0549506 15:-0.939754 16:-0.615625 
32768 32768 1:-0.193139 2:-0.434792 3:-0.711365 4:-0.930272 5:-0.683723 6:-0.00126068 7:-0.55993 8:-0.766762 9:-0.432688 10:-0.0222126 11:-0.351736 12:-0.829658 13:-0.444539 14:-0.0717682 15:-0.906362 16:-0.102061 
32768 32768 1:-0.0277586 2:-0.212608 3:0.180404 4:-0.190419 5:0.169873 6:0.0919867 7:-0.509065 8:-0.142219 9:-0.274877 10:-0.614851 11:0.0962817 12:-0.368238 13:-0.164139 14:0.540027 15:-0.610761 16:-0.55406 
32768 32768 1:-0.0579403 2:-0.492215 3:-0.757611 4:-0.93756 5:-0.741348 6:-0.00318833 7:-0.38098 8:-0.726752 9:-0.309056 10:-0.255265 11:0.12865 12:-0.507526 13:-0.179985 14:0.272125 15:-0.924398 16:-0.428057 
32768 32768 1:-0.0277042 2:-0.6636 3:-0.783989 4:-0.951791 5:-0.785658 6:-0.185721 7:-0.601123 8:-0.809812 9:-0.233001 10:-0.371745 11:-0.134541 12:-0.678986 13:-0.318273 14:0.145685 15:-0.890509 16:0.180559 
32768 32768 1:-0.0582928 2:-0.649099 3:-0.840803 4:-0.961772 5:-0.822366 6:0.204602 7:-0.291816 8:-0.893201 9:-0.292352 10:-0.441215 11:-0.517547 12:-0.868307 13:-0.650134 14:0.0435666 15:-0.859891 16:-0.367916 
32768 32768 1:-0.027039 2:-0.570034 3:-0.628027 4:-0.892457 5:-0.644199 6:-0.0994288 7:-0.696697 8:-0.728328 9:-0.0613198 10:-0.575145 11:-0.395306 12:-0.833196 13:-0.451982 14:0.0135572 15:-0.92541 16:-0.101992 
32768 7053.216890719614 1:-0.025272 2:-0.710849 3:-0.933018 4:-0.988527 5:-0.929225 6:-0.72304 7:-0.762781 8:-0.920241 9:-0.257886 10:-0.27086 11:-0.97701 12:-0.997522 13:-0.97436 14:-0.10392 15:-0.654978 16:-0.0141535 
32768 32768 1:-0.0446337 2:-0.52854 3:-0.649891 4:-0.884441 5:-0.626796 6:0.235653 7:-0.301227 8:-0.717574 9:-0.283166 10:-0.360357 11:0.0340318 12:-0.581041 13:-0.295593 14:0.0616503 15:-0.951297 16:-0.427064 
32768 32768 1:-0.0610109 2:-0.526748 3:-0.765031 4:-0.940038 5:-0.747469 6:0.0996566 7:-0.32761 8:-0.779958 9:-0.298419 10:-0.346779 11:0.119574 12:-0.552899 13:-0.277246 14:0.0507079 15:-0.951084 16:-0.389483 
32768 32768 1:-0.0617856 2:-0.338348 3:-0.467487 4:-0.812421 5:-0.489385 6:-0.278989 7:-0.600919 8:-0.512109 9:-0.302616 10:-0.220213 11:-0.40867 12:-0.770365 13:-0.455072 14:0.293438 15:-0.773793 16:-0.265787 
32768 32768 1:-0.232903 2:0.00589408 3:-0.0634082 4:-0.365496 5:0.0727731 6:0.473661 7:-0.22027 8:-0.278129 9:-0.24039 10:-0.233689 11:0.0201434 12:-0.434687 13:-0.202713 14:0.221729 15:-0.841027 16:0.132143 
32768 32768 1:-0.235788 2:-0.014336 3:-0.298818 4:-0.675573 5:-0.239413 6:-0.0348507 7:-0.525855 8:-0.287476 9:-0.350411 10:-0.505614 11:-0.537415 12:-0.87999 13:-0.596305 14:-0.0427806 15:-0.912812 16:-0.664632 
32768 32768 1:-0.0222256 2:-0.62239 3:-0.837994 4:-0.96737 5:-0.841384 6:-0.281026 7:-0.615828 8:-0.788921 9:-0.296492 10:0.242363 11:-0.800638 12:-0.980262 13:-0.891384 14:0.209128 15:-0.948498 16:0.64828 
32768 32768 1:-0.0638507 2:-0.112463 3:-0.251004 4:-0.663162 5:-0.271037 6:-0.433146 7:-0.782785 8:-0.257697 9:-0.292218 10:0.0183549 11:-0.171757 12:-0.615624 13:-0.314596 14:-0.17827 15:-0.787872 16:0.101561 
32768 32768 1:-0.0449281 2:-0.694147 3:-0.956926 4:-0.993648 5:-0.959271 6:-0.574808 7:-0.658485 8:-0.933324 9:-0.306931 10:-0.344096 11:-0.6053 12:-0.899086 13:-0.683911 14:-0.240209 15:-0.775188 16:-0.292721 
32768 32768 1:-0.258017 2:0.0509362 3:-0.240714 4:-0.617442 5:-0.17717 6:0.0503647 7:-0.394438 8:-0.181935 9:-0.286873 10:-0.70889 11:-0.67423 12:-0.931045 13:-0.764761 14:0.217212 15:-0.870947 16:-0.738057 
32768 32768 1:-0.0644696 2:-0.546835 3:-0.649113 4:-0.900722 5:-0.65992 6:-0.0741776 7:-0.574498 8:-0.761428 9:-0.301528 10:-0.423311 11:-0.619475 12:-0.925154 13:-0.735667 14:0.0125076 15:-0.8304 16:-0.39403 
32768 32768 1:-0.0404572 2:-0.297815 3:-0.273862 4:-0.663541 5:-0.288949 6:-0.352647 7:-0.725586 8:-0.336653 9:-0.355734 10:-0.181828 11:-0.36304 12:-0.828636 13:-0.484298 14:-0.00169792 15:-0.871411 16:-0.273265 
32768 32768 1:-0.283466 2:-0.0158032 3:-0.21871 4:-0.6193 5:-0.183701 6:-0.167234 7:-0.616535 8:-0.265533 9:-0.564175 10:0.813683 11:0.530089 12:-0.201882 13:0.198414 14:0.205663 15:-0.96397 16:0.787905 
32768 32768 1:-0.0674318 2:-0.142041 3:-0.0670069 4:-0.504911 5:-0.107241 6:-0.261194 7:-0.775444 8:-0.227764 9:-0.317898 10:0.292859 11:-0.190715 12:-0.647434 13:-0.302209 14:0.34281 15:-0.680869 16:0.411422 
32768 32768 1:-0.0162459 2:-0.0159636 3:0.420051 4:0.208189 5:0.455751 6:0.170397 7:-0.39748 8:0.148558 9:-0.2395 10:-0.53598 11:0.382431 12:-0.127249 13:0.010328 14:0.529718 15:-0.723246 16:-0.264228 
32768 32768 1:-0.0160771 2:-0.329087 3:-0.204841 4:-0.609082 5:-0.218024 6:-0.111315 7:-0.606002 8:-0.268434 9:-0.287519 10:-0.0461666 11:-0.247505 12:-0.686218 13:-0.424194 14:-0.121726 15:-0.816445 16:0.180553 
32768 32768 1:-0.045575 2:-0.624849 3:-0.858827 4:-0.972868 5:-0.862615 6:-0.424328 7:-0.652209 8:-0.844453 9:-0.333866 10:0.163737 11:-0.00149279 12:-0.605863 13:-0.0484207 14:-0.0510146 15:-0.935876 16:-0.149774 
32768 32768 1:-0.0456921 2:-0.595134 3:-0.604679 4:-0.860892 5:-0.581594 6:0.401883 7:-0.13342 8:-0.79273 9:-0.269307 10:-0.517853 11:-0.28579 12:-0.744527 13:-0.491344 14:0.314539 15:-0.814304 16:-0.377955 
32768 32768 1:-0.0458424 2:-0.608929 3:-0.821687 4:-0.958206 5:-0.809719 6:0.144649 7:-0.05302 8:-0.844823 9:-0.285805 10:-0.236029 11:0.187852 12:-0.442942 13:-0.183273 14:0.11574 15:-0.934368 16:-0.258769 
32768 32768 1:-0.0739004 2:-0.46145 3:-0.692997 4:-0.899623 5:-0.622167 6:0.59257 7:0.0758857 8:-0.79551 9:-0.2589 10:-0.588208 11:0.314334 12:-0.212837 13:-0.0360623 14:0.401595 15:-0.684632 16:-0.308409 
32768 32768 1:-0.0746308 2:-0.495197 3:-0.733611 4:-0.917241 5:-0.68324 6:0.674093 7:0.242218 8:-0.767405 9:-0.29611 10:-0.395306 11:-0.361184 12:-0.769092 13:-0.501984 14:0.0771005 15:-0.852952 16:-0.389714 
32768 32768 1:-0.0108333 2:-0.409177 3:-0.0704159 4:-0.553768 5:-0.162558 6:-0.278791 7:-0.878678 8:-0.458399 9:-0.0916702 10:-0.616595 11:0.638964 12:-0.0208371 13:0.168719 14:-0.081278 15:-0.878287 16:-0.0542743 
32768 32768 1:-0.372256 2:0.16077 3:-0.0715448 4:-0.463279 5:0.00826827 6:-0.163169 7:-0.686529 8:-0.121033 9:-0.337915 10:0.0439668 11:-0.907093 12:-0.988816 13:-0.867972 14:0.334475 15:-0.837132 16:0.256114 
32768 32768 1:-0.0431638 2:-0.250423 3:-0.150106 4:-0.594368 5:-0.207971 6:-0.329429 7:-0.812381 8:-0.273513 9:-0.283205 10:-0.089161 11:-0.224266 12:-0.610903 13:-0.356939 14:-0.0272335 15:-0.720493 16:0.159861 
32768 32768 1:-0.0770711 2:-0.487919 3:-0.764808 4:-0.94455 5:-0.735678 6:-0.176225 7:-0.683105 8:-0.802799 9:-0.314836 10:-0.338288 11:-0.272953 12:-0.751868 13:-0.389316 14:0.143937 15:-0.977963 16:-0.534795 
32768 32768 1:-0.3866 2:-0.147791 3:-0.48838 4:-0.819659 5:-0.426804 6:-0.487825 7:-0.858611 8:-0.481007 9:-0.422913 10:-0.320983 11:-0.531058 12:-0.875892 13:-0.576611 14:0.426853 15:-0.867775 16:-0.41599 
32768 32768 1:-0.085229 2:-0.0529261 3:-0.08342 4:-0.474449 5:-0.0699117 6:0.210112 7:-0.22504 8:-0.156975 9:-0.307259 10:-0.566058 11:-0.62231 12:-0.923518 13:-0.672574 14:-0.0507105 15:-0.857941 16:-0.733787 
32768 32768 1:-0.0385461 2:-0.364278 3:-0.38238 4:-0.780119 5:-0.44636 6:-0.50087 7:-0.888499 8:-0.417559 9:-0.283064 10:0.0311183 11:-0.828726 12:-0.935834 13:-0.769158 14:-1 15:1 16:0.321021 
32768 32768 1:-0.0863572 2:0.288736 3:-0.103029 4:-0.51078 5:-0.109797 6:-0.654056 7:-0.839221 8:0.377483 9:-0.292487 10:0.0110122 11:-0.562016 12:-0.881148 13:-0.661792 14:0.0811755 15:-0.76846 16:0.257131 
32768 26226.06866472681 1:0.419209 2:-0.428822 3:-0.234346 4:-0.679235 5:-0.179174 6:-0.913927 7:-0.958514 8:-0.0133834 9:-0.329591 10:-0.0700183 11:-0.690951 12:-0.922291 13:-0.731572 14:-0.16277 15:-0.544827 16:0.133432 
32768 32768 1:-0.0908636 2:-0.600239 3:-0.84856 4:-0.970098 5:-0.841183 6:-0.224209 7:-0.562809 8:-0.878613 9:-0.272876 10:-0.217337 11:-0.15547 12:-0.65736 13:-0.40236 14:-0.172813 15:-0.799031 16:0.0294232 
32768 32768 1:-0.0944811 2:-0.347555 3:-0.496863 4:-0.816072 5:-0.484373 6:-0.0815983 7:-0.616327 8:-0.585807 9:-0.350821 10:0.106464 11:0.0876391 12:-0.45544 13:-0.122156 14:0.209474 15:-0.862458 16:0.0604978 
32768 32768 1:0.0122692 2:-0.683304 3:-0.750721 4:-0.940778 5:-0.748248 6:-0.18492 7:-0.660778 8:-0.807514 9:-0.200544 10:-0.827799 11:-0.20744 12:-0.773624 13:-0.465619 14:0.172497 15:-0.986175 16:-0.614983 
32768 32768 1:-0.0484383 2:-0.516565 3:-0.705412 4:-0.913137 5:-0.688476 6:0.193136 7:0.0233399 8:-0.70974 9:-0.289961 10:-0.541078 11:0.78933 12:-0.0574197 13:0.052374 14:0.189313 15:-1 16:-0.648344 
32768 32768 1:-0.101168 2:-0.37646 3:-0.646527 4:-0.887721 5:-0.579746 6:0.270629 7:-0.281342 8:-0.721841 9:-0.281156 10:-0.386033 11:-0.386318 12:-0.794789 13:-0.550899 14:0.1082 15:-0.862956 16:-0.268232 
32768 32768 1:-0.101347 2:-0.543011 3:-0.787209 4:-0.95621 5:-0.79429 6:-0.347499 7:-0.807525 8:-0.800185 9:-0.344354 10:-0.334124 11:-0.739978 12:-0.942019 13:-0.733047 14:-0.263709 15:-0.502569 16:-0.341076 
32768 32768 1:-0.0488776 2:-0.53118 3:-0.661484 4:-0.90142 5:-0.659936 6:0.0315055 7:-0.515919 8:-0.753127 9:-0.293919 10:-0.109122 11:-0.564351 12:-0.862138 13:-0.543254 14:-0.0600051 15:-0.745101 16:-0.132438 
32768 32768 1:0.0260578 2:-0.167487 3:0.405707 4:0.149541 5:0.461724 6:-0.0470018 7:-0.565931 8:0.26816 9:-0.258484 10:-0.680306 11:-0.370195 12:-0.737658 13:-0.452676 14:0.618217 15:-0.535236 16:-0.46292 
32768 32768 1:-0.111868 2:-0.110808 3:0.0400968 4:-0.464133 5:-0.0690597 6:-0.42142 7:-0.914834 8:-0.153325 9:-0.346336 10:-0.613593 11:-0.680742 12:-0.921913 13:-0.708097 14:0.466731 15:-0.744962 16:-0.730207 
32768 32768 1:-0.0427555 2:-0.618292 3:-0.799795 4:-0.944787 5:-0.771521 6:0.460127 7:0.224446 8:-0.81461 9:-0.280108 10:-0.59593 11:0.257898 12:-0.437137 13:-0.204659 14:0.398088 15:-0.881171 16:-0.672796 
32768 32768 1:-0.0357846 2:-0.499955 3:-0.364563 4:-0.705432 5:-0.337521 6:0.296141 7:-0.299714 8:-0.548234 9:-0.279147 10:-0.472243 11:0.0246062 12:-0.547866 13:-0.30022 14:0.184977 15:-0.901787 16:-0.42698 
32768 32768 1:-0.0504593 2:-0.261277 3:-0.202043 4:-0.606974 5:-0.216852 6:-0.0594437 7:-0.578812 8:-0.396689 9:-0.276583 10:-0.254218 11:0.031046 12:-0.494201 13:-0.259331 14:-0.0214598 15:-0.774933 16:-0.0425246 
32768 32768 1:-0.0348818 2:-0.42998 3:-0.424557 4:-0.787211 5:-0.456712 6:-0.289871 7:-0.741383 8:-0.502809 9:-0.320965 10:0.0412294 11:0.162059 12:-0.394682 13:-0.116651 14:0.0394975 15:-0.8823 16:0.0511446 
32768 32768 1:-0.123417 2:-0.186188 3:-0.216739 4:-0.666998 5:-0.278872 6:-0.411073 7:-0.819408 8:-0.347739 9:-0.297687 10:-0.128861 11:0.313601 12:-0.324723 13:-0.129832 14:0.0199829 15:-0.939149 16:0.0682495 
-0 32768 1:-0.0513784 2:-0.638969 3:-0.868709 4:-0.969063 5:-0.844152 6:0.35327 7:-0.0841103 8:-0.904603 9:-0.271521 10:-0.43791 11:0.0607957 12:-0.54389 13:-0.297907 14:0.294845 15:-0.871153 16:-0.245402 
-0 32768 1:-0.129064 2:-0.0453962 3:0.0727834 4:-0.316424 5:0.0739543 6:0.0836064 7:-0.317004 8:-0.142142 9:-0.323161 10:-0.573675 11:-0.524276 12:-0.883365 13:-0.641547 14:0.378738 15:-0.815793 16:-0.680237 
-0 32768 1:-0.129068 2:-0.445846 3:-0.673968 4:-0.901476 5:-0.630462 6:0.137245 7:-0.364963 8:-0.758444 9:-0.295531 10:-0.308901 11:-0.258984 12:-0.621377 13:-0.363644 14:0.139967 15:-0.791758 16:-0.195854 
-32768 0 1:-0.129077 2:-0.278034 3:-0.594589 4:-0.868467 5:-0.522193 6:-0.118941 7:-0.58946 8:-0.632339 9:-0.351144 10:0.133891 11:0.159648 12:-0.439156 13:-0.0829464 14:-0.0820756 15:-0.868177 16:0.0418361 
-32768 32768 1:-0.0340961 2:-0.129441 3:0.131784 4:-0.243212 5:0.129211 6:-0.119681 7:-0.583543 8:0.0148337 9:-0.278335 10:-0.640664 11:-0.570399 12:-0.885994 13:-0.679553 14:0.408375 15:-0.713519 16:-0.653377 
-0 32768 1:-0.034053 2:-0.702842 3:-0.845757 4:-0.969447 5:-0.840275 6:-0.210125 7:-0.551396 8:-0.856825 9:-0.271052 10:-0.29318 11:0.0179007 12:-0.497002 13:-0.256508 14:0.124607 15:-0.883417 16:0.00148396 
-0 8631.243669853015 1:-0.0437078 2:-0.550551 3:-0.613973 4:-0.869252 5:-0.59757 6:0.392206 7:-0.144332 8:-0.720853 9:-0.288159 10:-0.255143 11:-0.111191 12:-0.55541 13:-0.301406 14:-0.084238 15:-0.837884 16:-0.149144 
-32768 32768 1:-0.0337994 2:-0.578048 3:-0.600593 4:-0.824401 5:-0.514934 6:1 7:0.893557 8:-0.700552 9:-0.285504 10:-0.337802 11:0.302969 12:-0.386384 13:-0.170983 14:0.0268142 15:-0.945047 16:-0.263863 
-3026.996123226436 0 1:-0.0518734 2:-0.598026 3:-0.854341 4:-0.974638 5:-0.867997 6:-0.698253 7:-0.818783 8:-0.82162 9:-0.281134 10:-0.234828 11:-0.742888 12:-0.910335 13:-0.723593 14:0.0277353 15:-0.577362 16:-0.0397032 
-3813.355606722619 32768 1:-0.965793 2:0.0360991 3:-0.273994 4:-0.605563 5:-0.146375 6:-0.199749 7:-0.803316 8:-0.252681 9:-0.612081 10:-0.726164 11:-0.674728 12:-0.93862 13:-0.679546 14:0.213628 15:-0.996164 16:-0.99371 
-32768 0 1:-0.0521658 2:-0.627758 3:-0.842589 4:-0.965856 5:-0.835556 6:0.0193175 7:-0.027167 8:-0.868422 9:-0.281986 10:-0.489135 11:0.136747 12:-0.522328 13:-0.281021 14:-0.0575113 15:-0.929231 16:-0.423814 
-5372.224141803949 0 1:0.0510375 2:-0.695531 3:-0.754686 4:-0.943 5:-0.74174 6:-0.472702 7:-0.875615 8:-0.780297 9:-0.263808 10:-0.211086 11:-0.657212 12:-0.856959 13:-0.63615 14:-0.640994 15:0.139744 16:0.0566843 
-0 32768 1:-0.0523864 2:-0.539738 3:-0.678087 4:-0.88586 5:-0.624934 6:0.625902 7:0.19457 8:-0.783436 9:-0.279012 10:-0.221023 11:-0.408604 12:-0.757112 13:-0.505694 14:0.343862 15:-0.637514 16:-0.0273121 
-32768 0 1:0.0542596 2:-0.736827 3:-0.841362 4:-0.964166 5:-0.805799 6:-0.0376336 7:-0.48081 8:-0.851246 9:-0.343691 10:-0.322711 11:0.0487898 12:-0.587116 13:-0.321558 14:-0.0308077 15:-0.931668 16:-0.287923 
-21453.33519281259 0 1:-0.0330468 2:-0.297035 3:-0.275083 4:-0.696888 5:-0.329865 6:-0.512914 7:-0.860308 8:-0.296038 9:-0.274436 10:-0.085015 11:-0.260866 12:-0.679699 13:-0.424253 14:0.0266658 15:-0.761089 16:0.232716 
-32768 0 1:0.0553398 2:-0.366295 3:-0.123275 4:-0.50901 5:-0.0985119 6:0.00166416 7:-0.45859 8:-0.231276 9:-0.318678 10:-0.623684 11:-0.685555 12:-0.936563 13:-0.74393 14:0.281771 15:-0.837856 16:-0.726689 
-0 32768 1:-0.141098 2:-0.552924 3:-0.776308 4:-0.948529 5:-0.768343 6:-0.0175847 7:-0.473449 8:-0.828642 9:-0.258955 10:0.110368 11:-0.959991 12:-0.995919 13:-0.969096 14:0.240261 15:-0.761372 16:0.53581 
-0 32768 1:-0.0418372 2:-0.308219 3:-0.195369 4:-0.519856 5:-0.127975 6:0.385209 7:-0.178975 8:-0.35263 9:-0.327434 10:-0.152382 11:-0.173706 12:-0.703695 13:-0.287719 14:0.174758 15:-0.882261 16:-0.362068 
-32768 32768 1:-0.0438178 2:-0.631995 3:-0.792553 4:-0.94467 5:-0.770979 6:0.475651 7:0.203413 8:-0.849791 9:-0.28429 10:-0.136655 11:-0.205891 12:-0.582654 13:-0.306151 14:0.690345 15:-0.438245 16:-0.0634453 
-23512.45249867443 0 1:0.05808 2:-0.667808 3:-0.510631 4:-0.831502 5:-0.491047 6:-0.287092 7:-0.810415 8:-0.650781 9:-0.33241 10:-0.747822 11:-0.535956 12:-0.891261 13:-0.624446 14:0.352492 15:-0.887168 16:-1 
-0 32768 1:-0.144514 2:0.118378 3:0.166295 4:-0.105039 5:0.27358 6:0.406473 7:-0.035957 8:-0.0877867 9:-0.314458 10:-0.0635685 11:-0.336893 12:-0.712019 13:-0.40927 14:0.422 15:-0.726091 16:-0.00117823 
-32768 0 1:-0.144958 2:-0.528212 3:-0.793183 4:-0.951783 5:-0.771797 6:-0.0394477 7:-0.585099 8:-0.813175 9:-0.505361 10:0.0632412 11:-0.619357 12:-0.940087 13:-0.501589 14:0.337521 15:-0.955166 16:-0.0580923 
-10802.02720136875 3027.315905751016 1:1 2:-0.00801681 3:0.816496 4:0.541447 5:0.697179 6:-0.570902 7:-0.958348 8:0.485561 9:-0.414487 10:0.298501 11:-0.724817 12:-0.964786 13:-0.830398 14:0.121068 15:-0.965078 16:0.693061 
-19799.32867415069 0 1:-0.148146 2:0.183587 3:-0.194868 4:-0.532187 5:0.0105443 6:0.657888 7:0.364242 8:-0.254013 9:-0.308901 10:-0.550184 11:-0.42828 12:-0.842993 13:-0.493215 14:0.220227 15:-0.917799 16:-0.830788 
-32768 32768 1:-0.0533572 2:-0.149382 3:0.108052 4:-0.31853 5:0.0617704 6:-0.103792 7:-0.659852 8:-0.136653 9:-0.331806 10:-0.576862 11:-0.0583862 12:-0.517615 13:-0.267104 14:0.27449 15:-0.834579 16:-0.644363 
-0 32768 1:-0.148475 2:0.110798 3:0.0533973 4:-0.348029 5:0.0764004 6:0.0408208 7:-0.474794 8:-0.0783558 9:-0.290163 10:-0.597241 11:-0.546753 12:-0.892776 13:-0.685027 14:0.158505 15:-0.872067 16:-0.623752 
-0 32768 1:-0.149285 2:-0.521134 3:-0.881622 4:-0.971356 5:-0.804474 6:0.256219 7:-0.220814 8:-0.868432 9:-0.14947 10:-0.478869 11:0.758198 12:0.217031 13:0.252893 14:-0.0621561 15:-0.941321 16:0.0486221 
-32768 0 1:-0.0536014 2:-0.142162 3:-0.103527 4:-0.475517 5:-0.0823313 6:-0.0159746 7:-0.425393 8:-0.160797 9:-0.288952 10:-0.621319 11:-0.514932 12:-0.860245 13:-0.629147 14:0.189936 15:-0.82235 16:-0.681996 
-32768 32768 1:0.0655057 2:-0.654027 3:-0.574148 4:-0.866053 5:-0.575787 6:-0.120587 7:-0.80119 8:-0.725497 9:-0.0580954 10:-0.530499 11:-0.0516257 12:-0.613197 13:-0.229305 14:-0.214316 15:-0.781624 16:0.0109357 
-32768 0 1:-0.05382 2:-0.614829 3:-0.84195 4:-0.967092 5:-0.837797 6:-0.151146 7:-0.458854 8:-0.865154 9:-0.293328 10:-0.476419 11:0.0124632 12:-0.60881 13:-0.340419 14:0.271501 15:-0.966064 16:-0.516912 
-0 32768 1:-0.0427114 2:-0.281206 3:-0.201389 4:-0.653187 5:-0.276354 6:-0.465687 7:-0.865896 8:-0.316092 9:-0.277964 10:-0.0273383 11:-0.422627 12:-0.726429 13:-0.471438 14:0.128515 15:-0.611199 16:0.257563 
-0 32768 1:-0.0313306 2:-0.674498 3:-0.710659 4:-0.915802 5:-0.685365 6:0.173113 7:-0.408847 8:-0.789673 9:-0.251476 10:-0.723181 11:-0.257133 12:-0.745277 13:-0.350147 14:-0.025257 15:-0.873464 16:-0.290706 
-0 31276.23899402592 1:-0.0416693 2:-0.603579 3:-0.8002 4:-0.949773 5:-0.786019 6:0.0205763 7:-0.526327 8:-0.790449 9:-0.308905 10:-0.299334 11:0.293258 12:-0.272443 13:-0.0850167 14:0.0888539 15:-0.925184 16:-0.26023 
-0 32768 1:0.0752199 2:-0.532369 3:-0.310014 4:-0.656964 5:-0.24532 6:0.242361 7:-0.348751 8:-0.41656 9:-0.252815 10:-0.817719 11:-0.365317 12:-0.788491 13:-0.535217 14:0.358134 15:-0.751469 16:-0.765753 
-19850.90897034383 32768 1:-0.162132 2:-0.0525742 3:-0.107257 4:-0.490979 5:-0.0482025 6:0.0946285 7:-0.5797 8:-0.337693 9:-0.347708 10:0.0351985 11:-0.372582 12:-0.825432 13:-0.449055 14:0.46804 15:-0.810254 16:-0.0046755 
-32768 0 1:-0.0305406 2:-0.719633 3:-0.878956 4:-0.9763 5:-0.875115 6:-0.0786696 7:-0.521483 8:-0.935697 9:-0.356761 10:-0.320937 11:-0.54075 12:-0.908525 13:-0.621733 14:-0.0452175 15:-0.918325 16:-0.416425 
-0 32768 1:-0.166242 2:-0.396426 3:-0.727562 4:-0.922492 5:-0.650791 6:0.17994 7:-0.242339 8:-0.746851 9:-0.305178 10:-0.18586 11:0.15122 12:-0.403748 13:-0.182957 14:-0.00970204 15:-0.893705 16:-0.0440184 
-0 32768 1:-0.166736 2:-0.048255 3:-0.4417 4:-0.782749 5:-0.337836 6:-0.378356 7:-0.842259 8:-0.420832 9:-0.43045 10:0.552508 11:-0.0081247 12:-0.600296 13:0.185985 14:0.0795292 15:-0.940067 16:0.124593 
-0 32768 1:-0.0554635 2:-0.550434 3:-0.619107 4:-0.874926 5:-0.603935 6:0.294979 7:-0.273636 8:-0.793079 9:-0.31334 10:-0.0399793 11:-0.0002016 12:-0.467066 13:-0.138265 14:0.281984 15:-0.837103 16:-0.138853 
-32768 0 1:-0.0559171 2:-0.54498 3:-0.7629 4:-0.94183 5:-0.756382 6:-0.159774 7:-0.574409 8:-0.785887 9:-0.279221 10:-0.462517 11:-0.037411 12:-0.581084 13:-0.331388 14:0.0462871 15:-0.919865 16:-0.373871 
-730.7693584131296 0 1:-0.0559642 2:-0.565891 3:-0.81368 4:-0.960491 5:-0.812098 6:-0.130223 7:-0.507824 8:-0.813721 9:-0.284533 10:-0.349704 11:-0.541711 12:-0.893586 13:-0.685496 14:-0.039857 15:-0.785332 16:-0.261764 
-0 32768 1:-0.175062 2:-0.0430894 3:-0.261036 4:-0.702758 5:-0.289929 6:-0.516885 7:-0.848186 8:-0.274432 9:-0.500901 10:0.62293 11:-0.218393 12:-0.700316 13:0.0823356 14:0.355151 15:-0.734381 16:0.290446 
-2005.994834525122 0 1:-0.0562302 2:-0.640994 3:-0.900168 4:-0.981483 5:-0.895142 6:-0.230521 7:-0.569516 8:-0.89166 9:-0.245665 10:-1 11:-0.014396 12:-0.530365 13:-0.270616 14:0.409158 15:-0.880895 16:-0.965152 
-0 23676.98840570327 1:-0.177341 2:-0.237774 3:-0.602601 4:-0.884934 5:-0.609844 6:-1 7:-0.846571 8:-0.405591 9:-0.0917835 10:-0.277175 11:-0.514529 12:-0.854716 13:-0.488459 14:-0.149077 15:-0.823513 16:0.318921 
-32768 32768 1:-0.17773 2:-0.0777832 3:-0.00582369 4:-0.43957 5:-0.0197132 6:-0.0740395 7:-0.6681 8:-0.291345 9:-0.310757 10:-0.591053 11:-0.497391 12:-0.820343 13:-0.568406 14:0.372909 15:-0.634082 16:-0.661511 
-0 32768 1:-0.056516 2:-0.553532 3:-0.745539 4:-0.927272 5:-0.718121 6:0.286336 7:-0.0173527 8:-0.800362 9:-0.319272 10:-0.0128039 11:0.016859 12:-0.39193 13:-0.0698535 14:0.412239 15:-0.682883 16:-0.138416 
-32768 32768 1:-0.056658 2:-0.28383 3:-0.0451883 4:-0.533314 5:-0.141155 6:-0.347106 7:-0.899079 8:-0.365201 9:-0.286128 10:-0.0341675 11:-0.516091 12:-0.846189 13:-0.617634 14:-0.0726591 15:-0.829936 16:0.235863 
-0 32768 1:-0.181343 2:-0.27588 3:-0.339721 4:-0.749751 5:-0.38578 6:-0.270291 7:-0.74318 8:-0.480338 9:-0.29345 10:-0.0967268 11:-0.212842 12:-0.65724 13:-0.401305 14:-0.241404 15:-0.769076 16:0.163774 
-7198.727756163299 0 1:-0.0567117 2:-0.51748 3:-0.656828 4:-0.892123 5:-0.641371 6:0.134251 7:-0.393942 8:-0.719597 9:-0.284549 10:-0.520851 11:0.0565481 12:-0.540896 13:-0.295519 14:-0.0270981 15:-0.921758 16:-0.484794 
-0 32768 1:-0.0289275 2:-0.555139 3:-0.504712 4:-0.814544 5:-0.492681 6:-0.00209218 7:-0.555115 8:-0.611682 9:-0.27191 10:-0.27876 11:-0.227174 12:-0.696084 13:-0.437921 14:-0.0173338 15:-0.820566 16:-0.00549913 
-0 6893.076730860945 1:-0.0426822 2:-0.684881 3:-0.889489 4:-0.975361 5:-0.872827 6:0.440546 7:0.360315 8:-0.912996 9:-0.292413 10:-0.326463 11:0.0170746 12:-0.499309 13:-0.214654 14:0.34243 15:-0.564059 16:-0.427204 
-0 20337.24705112532 1:-0.0413077 2:-0.649763 3:-0.843163 4:-0.968121 5:-0.84543 6:-0.290777 7:-0.662559 8:-0.850752 9:-0.280585 10:-0.378579 11:0.508642 12:-0.15822 13:-0.022761 14:0.13152 15:-0.951613 16:-0.278738 
-0 32768 1:-0.195049 2:-0.229345 3:-0.550208 4:-0.822537 5:-0.404488 6:0.411488 7:-0.358394 8:-0.661649 9:-0.378515 10:-0.169766 11:0.486836 12:-0.191476 13:0.0799364 14:0.287134 15:-0.903516 16:-0.433253 
-0 32768 1:-0.195176 2:-0.183878 3:-0.213809 4:-0.652492 5:-0.231498 6:-0.0898427 7:-0.698188 8:-0.478086 9:-0.276915 10:-0.235994 11:-0.175626 12:-0.637622 13:-0.383522 14:0.00959019 15:-0.806047 16:-0.00848894 
-32768 0 1:-0.058179 2:-0.532374 3:-0.625246 4:-0.89396 5:-0.644804 6:-0.0318054 7:-0.552151 8:-0.746339 9:-0.280195 10:-0.444543 11:-0.305946 12:-0.759992 13:-0.509986 14:0.349741 15:-0.858844 16:-0.342195 
-0 32768 1:-0.196431 2:-0.0610635 3:-0.248377 4:-0.584154 5:-0.130363 6:0.0589605 7:-0.556075 8:-0.384509 9:-0.3496 10:-0.220392 11:-0.325123 12:-0.77406 13:-0.426533 14:0.0392237 15:-0.894298 16:-0.330958 
-0 32768 1:-0.0582292 2:-0.067717 3:0.212317 4:-0.216118 5:0.157911 6:-0.0897959 7:-0.528436 8:-0.181788 9:-0.281634 10:-0.635878 11:-0.12523 12:-0.617506 13:-0.355228 14:0.267108 15:-0.758626 16:-0.715198 
-0 32768 1:-0.0273597 2:-0.583729 3:-0.599912 4:-0.867351 5:-0.593175 6:0.10797 7:-0.555898 8:-0.733528 9:-0.345546 10:0.139903 11:-0.201177 12:-0.646574 13:-0.348732 14:-0.0897796 15:-0.830088 16:0.30259 
-32768 0 1:-0.0584588 2:-0.538756 3:-0.717775 4:-0.92635 5:-0.71234 6:0.00502853 7:-0.467686 8:-0.798165 9:-0.30453 10:-0.159411 11:0.0734423 12:-0.539086 13:-0.227272 14:0.12337 15:-0.915335 16:-0.229124 
-32768 0 1:-0.058681 2:-0.366875 3:-0.431306 4:-0.767914 5:-0.424135 6:0.225563 7:-0.046715 8:-0.530629 9:-0.261966 10:-0.607426 11:0.199459 12:-0.517377 13:-0.265542 14:0.160872 15:-0.96749 16:-0.412359 
-32768 0 1:-0.0588786 2:-0.0204317 3:-0.0515116 4:-0.435161 5:-0.0421883 6:-0.0422798 7:-0.548321 8:-0.00410218 9:-0.29108 10:-0.584827 11:-0.59624 12:-0.900597 13:-0.687513 14:0.407105 15:-0.762009 16:-0.645747 
-32768 32768 1:0.120118 2:-0.371962 3:-0.015437 4:-0.419155 5:-0.00826314 6:0.0414697 7:-0.554584 8:-0.217035 9:-0.158834 10:-0.394972 11:0.281742 12:-0.253964 13:-0.0470719 14:-0.241546 15:-0.777044 16:0.038364 
-4943.80101790517 32768 1:-0.210789 2:-0.549961 3:-0.832891 4:-0.956534 5:-0.774389 6:0.276 7:-0.330459 8:-0.877292 9:-0.0941954 10:-0.668483 11:-0.146439 12:-0.610965 13:-0.286931 14:-0.196231 15:-0.768448 16:-0.317592 
-0 32768 1:-0.0597454 2:-0.617326 3:-0.727135 4:-0.928203 5:-0.726803 6:0.0158695 7:-0.645593 8:-0.826226 9:-0.580754 10:0.518727 11:0.144112 12:-0.334834 13:-0.0680571 14:0.231528 15:-0.84759 16:0.73769 
-0 32768 1:-0.0445185 2:-0.642284 3:-0.825255 4:-0.960974 5:-0.820723 6:0.00940236 7:-0.390783 8:-0.867544 9:-0.281859 10:-0.481498 11:0.120589 12:-0.436363 13:-0.208865 14:0.573825 15:-0.0752662 16:-0.467273 
-0 16793.70268917382 1:-0.0600204 2:-0.0126969 3:0.00696608 4:-0.403868 5:-0.0139224 6:-0.246416 7:-0.701142 8:0.031386 9:-0.302029 10:-0.664391 11:-0.726361 12:-0.903804 13:-0.689859 14:0.629093 15:-0.348784 16:-0.772602 
-0 32768 1:-0.219238 2:-0.508506 3:-0.864318 4:-0.963225 5:-0.790812 6:0.27999 7:-0.0987015 8:-0.824185 9:-0.0999414 10:-0.688154 11:-0.475446 12:-0.869062 13:-0.555231 14:-0.183488 15:-0.702379 16:-0.369037 
-0 32768 1:-0.0410421 2:-0.64215 3:-0.798734 4:-0.952424 5:-0.793801 6:-0.0144666 7:-0.481343 8:-0.838315 9:-0.266348 10:-0.712013 11:0.500996 12:-0.149708 13:-0.0111344 14:0.37165 15:-0.883707 16:-0.577807 
-0 32768 1:-0.0609818 2:-0.283913 3:-0.443425 4:-0.794998 5:-0.462189 6:-0.34581 7:-0.773686 8:-0.429966 9:-0.298893 10:0.0257804 11:-0.446177 12:-0.596215 13:-0.303862 14:0.530295 15:-0.225482 16:0.12995 
-0 32768 1:-0.230863 2:-0.256781 3:-0.428098 4:-0.780548 5:-0.436608 6:-0.272904 7:-0.751976 8:-0.413613 9:-0.171596 10:-0.266618 11:0.157389 12:-0.391727 13:-0.17091 14:-0.232017 15:-0.739595 16:0.083997 
-32768 0 1:-0.23101 2:-0.236853 3:-0.426372 4:-0.781993 5:-0.419996 6:-0.192382 7:-0.727427 8:-0.473501 9:-0.399971 10:0.0117316 11:-0.62934 12:-0.919175 13:-0.662065 14:-0.179639 15:-0.745105 16:0.116448 
-0 32768 1:-0.23136 2:-0.00569677 3:-0.0647632 4:-0.486171 5:-0.0625888 6:-0.0867867 7:-0.658736 8:-0.190696 9:-0.277552 10:-0.587349 11:-0.602671 12:-0.914556 13:-0.733332 14:0.0766392 15:-0.919241 16:-0.529329 
-0 32768 1:-0.0447372 2:-0.644993 3:-0.864784 4:-0.97031 5:-0.853111 6:0.108119 7:-0.228997 8:-0.873095 9:-0.263958 10:-0.608466 11:0.195858 12:-0.383793 13:-0.151914 14:0.271084 15:-0.904145 16:-0.348605 
-0 32768 1:0.148473 2:-0.636499 3:-0.381946 4:-0.754118 5:-0.385492 6:-0.0943715 7:-0.76363 8:-0.642213 9:-0.0647803 10:-0.672371 11:0.659637 12:-0.0834783 13:0.0843306 14:-0.0451887 15:-0.930913 16:-0.273921 
-0 32768 1:-0.0623272 2:-0.524826 3:-0.760706 4:-0.942993 5:-0.743668 6:-0.121436 7:-0.609951 8:-0.822012 9:-0.286433 10:-0.0589849 11:0.341629 12:-0.273137 13:-0.0886354 14:0.169612 15:-0.900524 16:0.115958 
-32768 32768 1:-0.240029 2:0.0925066 3:0.0277075 4:-0.354693 5:0.0545668 6:0.0953603 7:-0.295472 8:-0.0278522 9:-0.421779 10:-0.410018 11:-0.506893 12:-0.837732 13:-0.489912 14:0.353216 15:-0.824093 16:-0.617277 
-932.4079606958489 0 1:-0.0625532 2:-0.163631 3:-0.141236 4:-0.56659 5:-0.17155 6:-0.348751 7:-0.753444 8:-0.259749 9:-0.27617 10:-0.724771 11:-0.242711 12:-0.716248 13:-0.462175 14:0.21153 15:-0.864577 16:-0.728399 
-32768 32768 1:-0.0228764 2:-0.357554 3:-0.247166 4:-0.656242 5:-0.278297 6:-0.222429 7:-0.710356 8:-0.370489 9:-0.288855 10:-0.100396 11:-0.213068 12:-0.651007 13:-0.392629 14:-0.0232356 15:-0.809009 16:0.123987 
-0 32768 1:-0.245265 2:0.208083 3:-0.0798524 4:-0.449108 5:0.0643208 6:0.261782 7:-0.293517 8:-0.170455 9:-0.34861 10:-0.452005 11:-0.22758 12:-0.665961 13:-0.309097 14:0.406109 15:-0.792932 16:-0.708268 
-21716.39875350701 32768 1:0.16428 2:-0.559253 3:-0.0796313 4:-0.48553 5:-0.0675956 6:0.0306318 7:-0.65109 8:-0.475571 9:-0.361531 10:-0.209749 11:0.460246 12:0.123938 13:0.152145 14:0.53324 15:-0.765614 16:-0.152767 
-8691.881280508274 32768 1:0.16506 2:0.548683 3:0.794617 4:0.550966 5:0.666369 6:-0.621019 7:-0.901269 8:1 9:-0.788299 10:-0.382768 11:-0.665456 12:-0.91971 13:-0.543687 14:0.259777 15:-0.936378 16:-0.632277 
-0 4206.029458320554 1:-0.257184 2:0.237793 3:-0.0973436 4:-0.551424 5:-0.0923109 6:-0.535535 7:-0.813707 8:0.0428547 9:-0.426976 10:0.312945 11:-0.222125 12:-0.738487 13:-0.283231 14:0.268489 15:-0.883848 16:0.275481 
-0 32768 1:-0.257744 2:0.154541 3:0.161368 4:-0.254163 5:0.14696 6:-0.181716 7:-0.599276 8:0.0226151 9:-0.547848 10:-0.187218 11:-0.405344 12:-0.847247 13:-0.255439 14:0.377868 15:-0.848874 16:-0.617337 
-0 32768 1:-0.261239 2:0.26236 3:-0.07732 4:-0.395552 5:0.0821617 6:0.345351 7:-0.0768282 8:-0.0141752 9:-0.344488 10:-0.461891 11:-0.162276 12:-0.441828 13:-0.170988 14:0.900814 15:0.00593449 16:-0.630283 
-0 32768 1:-0.263341 2:-0.0892349 3:0.0439169 4:-0.410527 5:-0.00799844 6:-0.297906 7:-0.835593 8:-0.218931 9:-0.353598 10:-0.585486 11:-0.304275 12:-0.792631 13:-0.53617 14:0.139886 15:-0.951884 16:-0.642637 
-32768 32768 1:-0.0405923 2:-0.487008 3:-0.461728 4:-0.794851 5:-0.468605 6:0.0355464 7:-0.33228 8:-0.58948 9:-0.283699 10:-0.119992 11:0.327699 12:-0.317318 13:-0.107271 14:0.021449 15:-0.929363 16:-0.0370422 
-0 32768 1:-0.0655803 2:-0.147665 3:-0.196258 4:-0.64537 5:-0.264452 6:-0.763445 7:-0.926737 8:-0.192501 9:-0.263512 10:-0.0238272 11:-0.162166 12:-0.45049 13:-0.22188 14:0.585683 15:-0.467657 16:0.382924 
-0 32768 1:-0.0405485 2:-0.62635 3:-0.774283 4:-0.948498 5:-0.782143 6:-0.195632 7:-0.646836 8:-0.817478 9:-0.270805 10:-0.129799 11:-0.268615 12:-0.653734 13:-0.39736 14:0.159684 15:-0.718835 16:0.197029 
-0 32768 1:-0.279773 2:0.0291699 3:-0.135037 4:-0.564654 5:-0.113256 6:-0.323474 7:-0.816378 8:-0.241376 9:-0.256192 10:-0.768004 11:-0.452911 12:-0.819842 13:-0.581163 14:0.250002 15:-0.798348 16:-0.733641 
-0 32768 1:-0.281514 2:-0.374187 3:-0.820246 4:-0.957616 5:-0.722785 6:0.0126233 7:-0.448322 8:-0.731559 9:-0.515496 10:0.0121056 11:-0.712746 12:-0.950254 13:-0.493867 14:0.358052 15:-0.922011 16:-0.155623 
-0 16229.70007434386 1:-0.0667233 2:-0.484593 3:-0.811687 4:-0.960249 5:-0.804932 6:-0.501186 7:-0.806714 8:-0.721609 9:-0.234256 10:-0.432953 11:-0.220614 12:-0.676211 13:-0.348287 14:0.102224 15:-0.794974 16:0.020975 
-0 32768 1:-0.0669558 2:-0.0863475 3:-0.204275 4:-0.597664 5:-0.180309 6:-0.0773126 7:-0.563697 8:-0.295707 9:-0.302064 10:0.0191665 11:0.0410626 12:-0.457375 13:-0.0789899 14:0.112758 15:-0.878788 16:-0.159778 
-0 32768 1:-0.285088 2:-0.178677 3:-0.512034 4:-0.822792 5:-0.416288 6:-0.130828 7:-0.748202 8:-0.561597 9:-0.336833 10:0.109374 11:-0.00802271 12:-0.441482 13:-0.198904 14:0.00964946 15:-0.790674 16:0.321524 
-32768 0 1:-0.0672428 2:-0.380721 3:-0.659409 4:-0.889429 5:-0.628767 6:0.0385848 7:-0.384177 8:-0.570542 9:-0.267587 10:-0.537751 11:0.0998634 12:-0.510569 13:-0.269775 14:-0.029608 15:-0.931772 16:-0.384767 
-0 32768 1:-0.287775 2:0.651904 3:0.249442 4:-0.0761595 5:0.379516 6:-0.454988 7:-0.813621 8:0.407054 9:-0.371363 10:-0.266954 11:-0.305738 12:-0.768089 13:-0.347326 14:0.266619 15:-0.918541 16:-0.524111 
-0 32768 1:-0.0676049 2:-0.639219 3:-0.893666 4:-0.981548 5:-0.896054 6:-0.316356 7:-0.618876 8:-0.884372 9:-0.167036 10:-0.363247 11:0.290601 12:-0.347574 13:-0.118558 14:0.106382 15:-0.92135 16:0.0472028 
-32768 0 1:-0.0677386 2:-0.534354 3:-0.844101 4:-0.96311 5:-0.80668 6:0.277241 7:-0.199141 8:-0.819998 9:-0.295938 10:-0.013689 11:-0.0748594 12:-0.594581 13:-0.324438 14:0.0482707 15:-0.82359 16:0.151606 
-32768 0 1:-0.017007 2:-0.624641 3:-0.77895 4:-0.95292 5:-0.793279 6:-0.404156 7:-0.819693 8:-0.782695 9:-0.311494 10:-0.219889 11:-0.265675 12:-0.719052 13:-0.45571 14:-0.145622 15:-0.844921 16:-0.0900512 
-0 32768 1:-0.30506 2:-0.468614 3:-0.779309 4:-0.947112 5:-0.724716 6:-0.0564637 7:-0.698678 8:-0.814701 9:0.23257 10:-0.694045 11:-0.525816 12:-0.903696 13:-0.205719 14:-0.0803387 15:-0.881018 16:0.103794 
-32768 32768 1:-0.306253 2:-0.293874 3:-0.587472 4:-0.872485 5:-0.559696 6:-0.613301 7:-0.912236 8:-0.576636 9:-0.173911 10:-0.350241 11:-0.214334 12:-0.739871 13:-0.462973 14:-0.134046 15:-0.8807 16:-0.00268459 
-14010.76762729528 0 1:-0.0694694 2:-0.568996 3:-0.8488 4:-0.970291 5:-0.847641 6:-0.287631 7:-0.674794 8:-0.806237 9:-0.314179 10:-0.0594798 11:-0.314181 12:-0.732434 13:-0.456766 14:-0.0459162 15:-0.762217 16:0.0880292 
-0 32768 1:-0.309338 2:-0.334765 3:-0.664287 4:-0.881728 5:-0.569208 6:0.127734 7:-0.472869 8:-0.656904 9:-0.390966 10:0.135664 11:-0.719396 12:-0.95068 13:-0.738282 14:0.276206 15:-0.929074 16:0.335101 
-32768 0 1:-0.070001 2:-0.471845 3:-0.577965 4:-0.872286 5:-0.598345 6:-0.20976 7:-0.717185 8:-0.680502 9:-0.330451 10:-0.263579 11:0.116448 12:-0.535925 13:-0.238069 14:0.219655 15:-0.958367 16:-0.347336 
-22764.53282258868 0 1:-0.0154573 2:-0.509281 3:-0.653841 4:-0.899437 5:-0.656321 6:-0.567875 7:-0.772825 8:-0.595394 9:-0.421566 10:0.165765 11:0.673774 12:-0.0467389 13:0.185892 14:0.0575053 15:-0.967268 16:0.00265698 
-0 32768 1:-0.324815 2:0.122451 3:-0.158813 4:-0.503629 5:-0.0177772 6:-0.0045844 7:-0.490197 8:-0.209633 9:-0.43535 10:-0.147252 11:-0.575511 12:-0.917408 13:-0.488096 14:0.226482 15:-0.99198 16:-0.356278 
-32768 0 1:-0.0710467 2:-0.271705 3:-0.339246 4:-0.723807 5:-0.351699 6:-0.278183 7:-0.72468 8:-0.469378 9:-0.295932 10:-0.223835 11:0.389745 12:-0.319655 13:-0.105997 14:0.0237203 15:-0.948465 16:-0.203793 
-0 32768 1:-0.0711999 2:-0.489714 3:-0.726088 4:-0.91539 5:-0.689035 6:0.463168 7:0.100145 8:-0.709197 9:-0.296632 10:0.26199 11:-0.0127234 12:-0.260222 13:-0.083988 14:-0.128863 15:-0.660614 16:0.622101 
-32768 32768 1:-0.333264 2:0.276799 3:-0.0467668 4:-0.503491 5:0.0521823 6:-0.248942 7:-0.860332 8:-0.149752 9:-0.200152 10:0.0621485 11:-0.153941 12:-0.616761 13:-0.296018 14:0.535515 15:-0.683182 16:0.75461 
-32768 32768 1:-0.339031 2:-0.0308725 3:-0.306064 4:-0.587758 5:-0.137344 6:0.827944 7:0.564447 8:-0.328533 9:-0.222907 10:-0.769715 11:-0.176641 12:-0.750249 13:-0.487001 14:0.19659 15:-0.970264 16:-0.674858 
-15091.52827378791 32768 1:-0.0458469 2:-0.269 3:-0.293413 4:-0.69425 5:-0.327128 6:-0.33503 7:-0.816411 8:-0.327135 9:-0.276758 10:-0.0796176 11:-0.427662 12:-0.657309 13:-0.402294 14:0.180639 15:-0.343509 16:0.21631 
-32768 0 1:-0.0731039 2:-0.540255 3:-0.843589 4:-0.971993 5:-0.856843 6:-0.902288 7:-0.822629 8:-0.745036 9:-0.43442 10:0.140737 11:-0.742873 12:-0.950712 13:-0.595216 14:-0.0453584 15:-0.872466 16:0.150561 
-32768 0 1:-0.346795 2:-0.0565337 3:-0.368336 4:-0.750296 5:-0.334846 6:-0.478991 7:-0.82494 8:-0.337637 9:-0.354915 10:-0.530299 11:-0.909819 12:-0.989253 13:-0.856715 14:0.398194 15:-0.889615 16:-0.609871 
-32768 0 1:-0.0459095 2:-0.614648 3:-0.818826 4:-0.961752 5:-0.82328 6:-0.162784 7:-0.622133 8:-0.827136 9:-0.278814 10:-0.464719 11:-0.246356 12:-0.765686 13:-0.516692 14:0.176945 15:-0.893698 16:-0.370107 
-32768 32768 1:-0.0396725 2:-0.624454 3:-0.741822 4:-0.933941 5:-0.741451 6:-0.00714181 7:-0.46736 8:-0.806952 9:-0.285518 10:-0.0614986 11:-0.532094 12:-0.783523 13:-0.529539 14:0.359441 15:-0.460844 16:0.152917 
-0 32768 1:-0.358191 2:0.011431 3:-0.490607 4:-0.797375 5:-0.300431 6:-0.46457 7:-0.918043 8:-0.440195 9:-0.339704 10:0.0307117 11:-0.463972 12:-0.792637 13:-0.510864 14:-0.322828 15:-0.619667 16:0.182438 
-32768 0 1:-0.0754233 2:-0.239855 3:-0.248341 4:-0.66578 5:-0.278272 6:-0.242385 7:-0.754411 8:-0.422139 9:-0.326611 10:0.162517 11:-0.284898 12:-0.749489 13:-0.328793 14:0.0314993 15:-0.790703 16:0.107181 
-32768 32768 1:-0.00920505 2:0.0388636 3:0.371804 4:0.0460921 5:0.345639 6:-0.285983 7:-0.780394 8:0.215521 9:-0.202779 10:-0.496478 11:0.473832 12:-0.144528 13:0.0114302 14:0.38831 15:-0.839162 16:-0.147721 
-32768 0 1:-0.0462761 2:-0.599812 3:-0.751558 4:-0.927192 5:-0.723834 6:0.34956 7:-0.156865 8:-0.811902 9:-0.317411 10:-0.132224 11:-0.104977 12:-0.591295 13:-0.20754 14:0.0493728 15:-0.916206 16:-0.31749 
-0 30141.37846017574 1:0.30657 2:-0.543556 3:-0.0953752 4:-0.476005 5:-0.0337225 6:0.0820585 7:-0.544838 8:-0.348586 9:-0.109437 10:-0.750224 11:-0.499 12:-0.891258 13:-0.628668 14:0.154337 15:-0.939571 16:-0.539716 
-0 32768 1:-0.0392998 2:-0.588321 3:-0.763376 4:-0.943308 5:-0.765985 6:-0.312004 7:-0.692174 8:-0.737099 9:-0.295154 10:0.157912 11:-0.258105 12:-0.676886 13:-0.338803 14:0.429977 15:-0.808606 16:0.235504 
-0 32768 1:-0.0794345 2:-0.521881 3:-0.79899 4:-0.929584 5:-0.719559 6:0.860542 7:0.376952 8:-0.776917 9:-0.353707 10:0.0505436 11:0.269826 12:-0.393679 13:-0.112829 14:0.0823413 15:-0.920903 16:0.0569329 
-0 32768 1:-0.00521455 2:-0.638776 3:-0.809857 4:-0.959558 5:-0.81253 6:-0.324347 7:-0.598826 8:-0.791669 9:-0.638267 10:0.989959 11:-0.377852 12:-0.827406 13:-0.0182385 14:0.243394 15:-0.982704 16:0.865699 
-0 32768 1:-0.00476219 2:-0.639938 3:-0.726486 4:-0.925606 5:-0.710514 6:0.08918 7:-0.388094 8:-0.748299 9:-0.307001 10:-0.0307456 11:-0.186936 12:-0.611822 13:-0.346068 14:-0.0511289 15:-0.791557 16:0.157433 
-32768 20674.25396280304 1:-0.00407597 2:-0.556779 3:-0.65203 4:-0.876068 5:-0.609443 6:0.349391 7:-0.178599 8:-0.682243 9:-0.220082 10:-0.65191 11:0.469228 12:-0.237991 13:-0.0698852 14:0.257047 15:-0.961996 16:-0.517113 
-32768 0 1:-0.0467529 2:-0.594275 3:-0.761436 4:-0.939924 5:-0.75698 6:-0.0689362 7:-0.556721 8:-0.809406 9:-0.300836 10:0.0569625 11:-0.203727 12:-0.635922 13:-0.305919 14:-0.0569112 15:-0.751996 16:0.0921599 
-32768 0 1:-0.0831646 2:-0.450128 3:-0.722966 4:-0.928121 5:-0.695321 6:-0.0801025 7:-0.589872 8:-0.746152 9:-0.309744 10:-0.32474 11:-0.38468 12:-0.793399 13:-0.482891 14:0.0300241 15:-0.935891 16:-0.413669 
-32768 0 1:-0.083256 2:-0.239435 3:-0.340306 4:-0.731051 5:-0.375037 6:-0.43724 7:-0.774962 8:-0.303495 9:-0.230621 10:-0.224214 11:-0.718005 12:-0.943093 13:-0.775868 14:-0.368145 15:-0.504013 16:0.111538 
-0 32768 1:-0.0832768 2:0.161327 3:0.0696699 4:-0.350683 5:0.0551868 6:-0.318928 7:-0.742895 8:0.0885377 9:-0.285486 10:-0.592689 11:-0.222235 12:-0.623575 13:-0.362597 14:0.60205 15:-0.576456 16:-0.639293 
-0 32768 1:-0.0836021 2:-0.503255 3:-0.685815 4:-0.926855 5:-0.710511 6:-0.389739 7:-0.784107 8:-0.760052 9:-0.427256 10:0.504591 11:0.417446 12:-0.16766 13:0.222722 14:0.0738245 15:-0.946061 16:0.316577 
-32768 0 1:-0.0469105 2:-0.349375 3:-0.478633 4:-0.794289 5:-0.468334 6:0.110152 7:-0.252649 8:-0.427378 9:-0.223422 10:-0.538863 11:0.266679 12:-0.376656 13:-0.146133 14:-0.0202562 15:-0.927115 16:-0.24296 
-19877.57400121422 32768 1:-0.0841758 2:0.10109 3:0.136897 4:-0.233468 5:0.141086 6:-0.000946948 7:-0.474469 8:0.093923 9:-0.299253 10:-0.555845 11:-0.360322 12:-0.670707 13:-0.396834 14:0.787588 15:-0.136062 16:-0.637681 
-0 32768 1:-0.458305 2:0.400761 3:0.282357 4:-0.123663 5:0.313451 6:-0.238316 7:-0.68562 8:0.133368 9:-0.300352 10:-0.568527 11:-0.500915 12:-0.876417 13:-0.662552 14:0.302173 15:-0.862443 16:-0.557726 
-32768 32768 1:-0.459619 2:0.741506 3:0.374653 4:0.0814902 5:0.501481 6:-0.309414 7:-0.657431 8:0.490829 9:-0.543559 10:0.294887 11:-0.364689 12:-0.823193 13:-0.124436 14:-0.00751862 15:-0.875055 16:-0.0388464 
-0 32768 1:-0.0848716 2:-0.262924 3:-0.468849 4:-0.810288 5:-0.440287 6:-0.190088 7:-0.688755 8:-0.583607 9:-0.344425 10:0.515539 11:-0.174444 12:-0.684736 13:0.0171366 14:0.0942041 15:-0.844159 16:0.219748 
-0 32768 1:-0.047153 2:-0.325057 3:-0.268177 4:-0.687807 5:-0.318748 6:-0.328214 7:-0.786081 8:-0.414737 9:-0.295109 10:0.0707534 11:0.286021 12:-0.12244 13:0.0283153 14:0.20637 15:-0.84214 16:0.187035 
-0 32768 1:-0.487846 2:0.478304 3:0.587294 4:0.314539 5:0.571557 6:-0.144708 7:-0.687706 8:0.362603 9:-0.434432 10:-0.503951 11:-0.488043 12:-0.875536 13:-0.572498 14:0.310737 15:-0.910859 16:-0.692838 
-0 32768 1:-0.0874751 2:-0.363053 3:-0.444527 4:-0.790735 5:-0.445043 6:-0.136245 7:-0.725034 8:-0.609266 9:-0.373407 10:0.0668304 11:0.747549 12:0.102881 13:0.307752 14:0.189924 15:-0.979899 16:-0.245427 
-0 32768 1:-0.0911369 2:-0.135111 3:0.00725663 4:-0.294163 5:0.0843117 6:0.403018 7:-0.199725 8:-0.1709 9:-0.394601 10:-0.516731 11:-0.690948 12:-0.944929 13:-0.689156 14:0.318524 15:-0.930399 16:-0.688918 
-0 32768 1:-0.0476717 2:-0.529303 3:-0.540348 4:-0.842702 5:-0.547085 6:0.0438929 7:-0.603325 8:-0.730138 9:-0.269041 10:-0.307763 11:0.114888 12:-0.407273 13:-0.183811 14:0.10906 15:-0.802508 16:0.0136391 
-0 32768 1:-0.0917568 2:-0.154277 3:-0.229836 4:-0.576568 5:-0.182273 6:0.0378622 7:-0.267305 8:-0.246526 9:-0.375871 10:-0.380165 11:-0.237824 12:-0.70198 13:-0.308807 14:0.439968 15:-0.833345 16:-0.659744 
-32768 32768 1:0.00723801 2:-0.768455 3:-0.783354 4:-0.944718 5:-0.730469 6:0.762326 7:0.615402 8:-0.843849 9:-0.250992 10:-0.539682 11:-0.359776 12:-0.776615 13:-0.501587 14:0.402077 15:-0.754621 16:-0.275406 
-32768 0 1:-0.0378019 2:-0.626404 3:-0.778 4:-0.947935 5:-0.780429 6:-0.229071 7:-0.652518 8:-0.815319 9:-0.303486 10:-0.460404 11:0.168218 12:-0.466323 13:-0.228355 14:0.182666 15:-0.925518 16:-0.461664 
-32768 0 1:-0.093199 2:-0.314965 3:-0.297951 4:-0.704779 5:-0.338204 6:-0.201888 7:-0.65752 8:-0.442454 9:-0.434443 10:0.0888376 11:-0.441735 12:-0.860136 13:-0.4606 14:-0.0510321 15:-0.906893 16:0.0387546 
-0 32768 1:-0.558477 2:-0.200435 3:-0.543669 4:-0.828335 5:-0.444354 6:0.0250705 7:-0.394213 8:-0.546274 9:-0.402542 10:0.119359 11:-0.909811 12:-0.992047 13:-0.873959 14:0.225562 15:-0.734422 16:0.362951 
-0 32768 1:-0.567564 2:0.256718 3:0.138934 4:-0.340571 5:0.10206 6:-0.264916 7:-0.766321 8:0.065896 9:-0.318266 10:-0.726844 11:-0.509203 12:-0.887552 13:-0.680391 14:0.289964 15:-0.896637 16:-0.792781 
-0 32768 1:-0.0963011 2:-0.358292 3:-0.692679 4:-0.901103 5:-0.6182 6:0.0211209 7:-0.439369 8:-0.66229 9:-0.362244 10:0.238366 11:-0.502078 12:-0.810688 13:-0.223877 14:0.600168 15:-0.533424 16:0.00536728 
-32768 2629.304771452646 1:-0.0964721 2:-0.522775 3:-0.749577 4:-0.932593 5:-0.725674 6:0.197105 7:-0.292606 8:-0.784821 9:-0.329663 10:0.115023 11:-0.891988 12:-0.978105 13:-0.816193 14:0.262884 15:-0.736532 16:0.330678 
-0 32768 1:-0.100942 2:-0.548124 3:-0.855124 4:-0.968108 5:-0.831833 6:-0.0819833 7:-0.531039 8:-0.810791 9:-0.0811186 10:-0.54039 11:-0.493107 12:-0.837215 13:-0.310028 14:-0.298076 15:-0.604933 16:0.150909 
-32768 0 1:-0.101268 2:0.0599139 3:-0.105343 4:-0.481303 5:-0.07519 6:-0.176034 7:-0.512887 8:-1.94184e-06 9:-0.305401 10:-0.548214 11:-0.360964 12:-0.730194 13:-0.452822 14:0.433323 15:-0.729336 16:-0.640942 
-0 32768 1:-0.0367641 2:-0.377082 3:-0.220179 4:-0.656609 5:-0.279295 6:-0.374182 7:-0.809225 8:-0.409589 9:-0.268701 10:0.0193655 11:0.647326 12:0.526355 13:0.342432 14:0.436214 15:-0.820696 16:0.486638 
-0 32768 1:-0.0488933 2:-0.429313 3:-0.438928 4:-0.764028 5:-0.419952 6:0.296096 7:-0.0754874 8:-0.606876 9:-0.284648 10:0.0691412 11:0.0278331 12:-0.290905 13:-0.0936285 14:0.145587 15:-0.768644 16:0.263454 
-32768 0 1:-0.0364841 2:-0.584896 3:-0.721286 4:-0.933617 5:-0.740406 6:-0.504192 7:-0.781949 8:-0.744011 9:-0.300573 10:-0.284806 11:-0.846885 12:-0.964622 13:-0.797606 14:-0.536631 15:-0.119491 16:-0.23879 
-32336.98371228409 32768 1:-0.0492468 2:-0.244233 3:-0.086947 4:-0.466989 5:-0.073195 6:0.172607 7:-0.412241 8:-0.328675 9:-0.2908 10:-0.157535 11:0.328724 12:-0.308973 13:-0.083484 14:0.0162995 15:-0.914217 16:-0.167783 
-0 32768 1:-0.0493044 2:-0.452802 3:-0.489158 4:-0.797102 5:-0.460624 6:0.384919 7:-0.263806 8:-0.71112 9:-0.272326 10:-0.542284 11:0.674996 12:0.072794 13:0.120316 14:0.146462 15:-0.932107 16:-0.302687 
-0 32768 1:-0.0496894 2:-0.186383 3:-0.189949 4:-0.64137 5:-0.261957 6:-0.478005 7:-0.8794 8:-0.199425 9:-0.347101 10:0.185933 11:-0.0835967 12:-0.454227 13:-0.129582 14:0.434489 15:-0.6889 16:0.196386 
-21593.54947216157 0 1:-0.116441 2:-0.0113836 3:-0.198615 4:-0.625767 5:-0.20869 6:-0.41348 7:-0.777586 8:-0.195441 9:-0.302861 10:0.0747973 11:-0.452661 12:-0.829418 13:-0.563717 14:0.351027 15:-0.762668 16:0.269912 
-32768 0 1:-0.116653 2:-0.385118 3:-0.491179 4:-0.808343 5:-0.480392 6:0.0730562 7:-0.445248 8:-0.597173 9:-0.226354 10:-0.154781 11:-0.759419 12:-0.949913 13:-0.771631 14:-0.626384 15:-0.163786 16:0.260917 
-25879.44803209604 0 1:-0.117287 2:-0.0364126 3:-0.114708 4:-0.525555 5:-0.116236 6:-0.0512361 7:-0.568611 8:-0.162277 9:-0.307481 10:-0.583093 11:-0.191128 12:-0.70688 13:-0.431936 14:0.269494 15:-0.878546 16:-0.680428 
-7937.345182653742 32768 1:-0.0504677 2:-0.291593 3:-0.00893285 4:-0.519116 5:-0.126712 6:-0.459776 7:-0.934576 8:-0.368155 9:-0.291364 10:-0.018769 11:-0.529803 12:-0.82118 13:-0.569783 14:-0.246752 15:-0.614243 16:0.18589 
-0 12752.51039267819 1:-0.814116 2:0.261799 3:-0.537264 4:-0.839453 5:-0.487186 6:-0.6922 7:-0.727463 8:0.203598 9:-0.971725 10:-0.427505 11:-0.657258 12:-0.935217 13:-0.517845 14:0.110358 15:-0.93248 16:-0.750435 
-0 25931.87083449185 1:-0.120114 2:-0.0300854 3:-0.344525 4:-0.715334 5:-0.294209 6:-0.153379 7:-0.661287 8:-0.290455 9:-0.333255 10:0.0654048 11:0.810922 12:0.208996 13:0.266776 14:0.119801 15:-0.963695 16:-0.0294634 
-8433.485410289955 0 1:-0.050775 2:-0.553398 3:-0.612264 4:-0.862002 5:-0.582237 6:0.609012 7:0.264601 8:-0.765101 9:-0.283211 10:-0.461153 11:-0.241376 12:-0.737335 13:-0.480512 14:0.152205 15:-0.863728 16:-0.412689 
-0 32768 1:-0.0510609 2:-0.0652228 3:0.250671 4:-0.125208 5:0.223405 6:-0.024865 7:-0.592039 8:-0.117173 9:-0.283148 10:-0.502399 11:-0.277353 12:-0.709931 13:-0.428428 14:0.411275 15:-0.667925 16:-0.586252 
-5904.176094807385 0 1:-0.127547 2:-0.519959 3:-0.8085 4:-0.954101 5:-0.765172 6:0.155503 7:-0.508809 8:-0.839786 9:-0.346617 10:-0.282543 11:-0.55012 12:-0.850267 13:-0.55924 14:0.066839 15:-0.90233 16:-0.330937 
-0 32768 1:0.042282 2:-0.508807 3:-0.42133 4:-0.719514 5:-0.346688 6:0.466317 7:0.168808 8:-0.492657 9:-0.363695 10:-0.17818 11:0.0235849 12:-0.578893 13:-0.274289 14:0.0215337 15:-0.955387 16:-0.214898 
-32768 -32768 1:-0.135091 2:-0.433265 3:-0.596906 4:-0.872369 5:-0.585236 6:0.0530732 7:-0.531381 8:-0.696416 9:-0.374398 10:-0.270921 11:-0.336737 12:-0.807699 13:-0.492376 14:0.0483691 15:-0.924184 16:-0.346387 
-32768 -32768 1:-0.137043 2:0.1037 3:-0.0851178 4:-0.502585 5:-0.0639791 6:-0.198981 7:-0.589795 8:-0.0898544 9:-0.294041 10:-0.626832 11:-0.643102 12:-0.876344 13:-0.650262 14:0.394415 15:-0.549873 16:-0.701948 
-32768 -32768 1:-0.137151 2:0.0563907 3:0.253943 4:-0.176156 5:0.186096 6:-0.283066 7:-0.844343 8:0.0368176 9:-0.397451 10:-0.391764 11:-0.462903 12:-0.865627 13:-0.528252 14:0.515053 15:-0.803432 16:-0.580593 
-0 -12046.09493641454 1:-0.137921 2:0.237171 3:0.687931 4:0.483458 5:0.63695 6:-0.107968 7:-0.71251 8:0.223933 9:-0.344862 10:-0.468557 11:-0.704104 12:-0.940863 13:-0.658739 14:0.322431 15:-0.88988 16:-0.652241 
-23028.0809055322 -32768 1:-0.141945 2:-0.383247 3:-0.71168 4:-0.913163 5:-0.615163 6:0.285255 7:-0.28609 8:-0.763187 9:-0.41034 10:-0.0764589 11:-0.256648 12:-0.748206 13:-0.137504 14:0.12897 15:-0.98332 16:-0.511108 
-32768 -32768 1:-0.144106 2:-0.348188 3:-0.736581 4:-0.913856 5:-0.602539 6:0.410455 7:-0.184182 8:-0.739956 9:-0.317132 10:-0.221298 11:-0.642904 12:-0.931332 13:-0.685544 14:0.368777 15:-0.85225 16:-0.223483 
-32768 -32768 1:-0.0531173 2:-0.578925 3:-0.788706 4:-0.955007 5:-0.799879 6:-0.333627 7:-0.687111 8:-0.798474 9:-0.27628 10:-0.425025 11:-0.219596 12:-0.533052 13:-0.29107 14:0.344602 15:-0.592549 16:-0.285909 
-13239.26616366156 -32768 1:-0.156673 2:-0.404482 3:-0.656526 4:-0.901657 5:-0.655425 6:-0.500457 7:-0.833601 8:-0.599562 9:-0.574904 10:0.292463 11:-0.172245 12:-0.726542 13:-0.299476 14:0.49664 15:-0.79773 16:0.288254 
-15786.72944483481 -32768 1:-0.158147 2:-0.149938 3:0.332627 4:0.00966863 5:0.322931 6:0.117232 7:-0.596087 8:-0.242485 9:-0.47459 10:-0.491133 11:-0.75397 12:-0.960174 13:-0.687515 14:0.454798 15:-0.711587 16:-0.686908 
-32768 -32768 1:-0.158561 2:-0.30714 3:-0.425879 4:-0.811362 5:-0.478367 6:-0.520375 7:-0.904378 8:-0.518549 9:-0.289111 10:-0.0118437 11:-0.578113 12:-0.888385 13:-0.685119 14:-0.155032 15:-0.742615 16:0.292349 
-0 -32768 1:-0.0546121 2:-0.495805 3:-0.669705 4:-0.888553 5:-0.628113 6:0.463631 7:0.00261122 8:-0.733986 9:-0.279229 10:-0.264999 11:-0.335588 12:-0.594069 13:-0.342113 14:0.950329 15:0.125044 16:-0.0956928 
-32768 -32768 1:-0.0547501 2:-0.501732 3:-0.764673 4:-0.944225 5:-0.764892 6:-0.501915 7:-0.733126 8:-0.710303 9:-0.235817 10:-0.637217 11:0.767236 12:0.0509262 13:0.169015 14:0.264399 15:-0.930949 16:-0.1831 
-32768 -32768 1:-0.0547605 2:-0.544921 3:-0.590807 4:-0.833996 5:-0.532838 6:0.652904 7:0.0667726 8:-0.734906 9:-0.398924 10:-0.159753 11:-0.00439587 12:-0.550843 13:-0.201484 14:0.333217 15:-0.906011 16:-0.308337 
-32768 -32768 1:-0.0308867 2:-0.129699 3:0.139659 4:-0.367981 5:0.018138 6:-0.69113 7:-0.974396 8:-0.0745658 9:-0.336347 10:0.184777 11:-0.372237 12:-0.761205 13:-0.484992 14:-0.19875 15:-0.683433 16:0.439647 
-32768 -32768 1:-0.0550992 2:-0.536131 3:-0.695103 4:-0.917155 5:-0.695973 6:0.0673254 7:-0.377506 8:-0.757615 9:-0.328847 10:-0.0222212 11:0.455861 12:-0.215694 13:0.0453874 14:0.180659 15:-0.973602 16:-0.168446 
-32768 -32768 1:-0.165993 2:-0.106427 3:-0.601183 4:-0.873309 5:-0.547347 6:-0.598534 7:-0.813745 8:-0.337895 9:-0.348148 10:-0.199884 11:-0.600904 12:-0.908527 13:-0.612469 14:-0.0926298 15:-0.791688 16:-0.252148 
-0 -32768 1:-0.055667 2:-0.50133 3:-0.555756 4:-0.845017 5:-0.551434 6:0.153757 7:-0.330352 8:-0.684736 9:-0.344665 10:0.138703 11:0.0915614 12:-0.467604 13:-0.142708 14:0.116635 15:-0.858397 16:0.135203 
-0 -32768 1:-0.172253 2:-0.510121 3:-0.784231 4:-0.940997 5:-0.713775 6:0.190445 7:-0.174922 8:-0.867317 9:-0.488263 10:-0.0993899 11:0.376593 12:-0.00518858 13:0.200514 14:0.488256 15:-0.803536 16:-0.373521 
-32768 -32768 1:-0.174173 2:-0.357725 3:-0.674813 4:-0.904731 5:-0.613654 6:-0.439067 7:-0.860044 8:-0.690709 9:-0.423994 10:0.217015 11:-0.419143 12:-0.820912 13:-0.360165 14:0.172541 15:-0.98574 16:0.141559 
-12033.27834044293 -32768 1:-0.0561051 2:-0.276198 3:-0.348945 4:-0.749286 5:-0.391225 6:-0.398546 7:-0.838388 8:-0.446399 9:-0.282513 10:-0.332421 11:-0.362536 12:-0.650442 13:-0.385396 14:0.551623 15:0.0102763 16:-0.268207 
-32768 -32768 1:-0.029011 2:-0.663831 3:-0.783304 4:-0.939847 5:-0.755957 6:0.610976 7:0.321417 8:-0.843556 9:-0.245078 10:-0.394463 11:0.00186347 12:-0.599995 13:-0.331173 14:-0.0900557 15:-0.894727 16:-0.0782947 
-0 -32768 1:-0.183113 2:0.016025 3:-0.288749 4:-0.687529 5:-0.22722 6:-0.329631 7:-0.78766 8:-0.313317 9:-0.351186 10:0.16384 11:-0.357579 12:-0.775872 13:-0.382351 14:0.226634 15:-0.591876 16:0.157242 
-32768 -32768 1:-0.0571076 2:-0.515782 3:-0.70458 4:-0.91558 5:-0.683507 6:0.13738 7:-0.323298 8:-0.7802 9:-0.318099 10:-0.248724 11:0.00575247 12:-0.577671 13:-0.12808 14:0.246722 15:-0.979009 16:-0.611532 
-0 -32768 1:-0.185974 2:-0.352071 3:-0.458301 4:-0.763657 5:-0.397616 6:0.0948962 7:-0.49876 8:-0.628685 9:-0.690233 10:0.163466 11:-0.208497 12:-0.698326 13:0.0956028 14:0.0328185 15:-0.980539 16:-0.400587 
-0 -32768 1:-0.186754 2:-0.323976 3:-0.326716 4:-0.725985 5:-0.355834 6:-0.149927 7:-0.755651 8:-0.538402 9:-0.703847 10:0.471313 11:-0.293751 12:-0.779077 13:-0.0531115 14:-0.0369078 15:-0.835739 16:0.175092 
-0 -32768 1:-0.0573327 2:-0.105525 3:0.0672583 4:-0.307678 5:0.0719382 6:0.0880363 7:-0.418143 8:-0.107743 9:-0.329352 10:0.143211 11:-0.0503411 12:-0.505093 13:-0.200473 14:-0.0847678 15:-0.809186 16:0.216234 
-32768 -32768 1:-0.19409 2:0.00548504 3:-0.233098 4:-0.635309 5:-0.223493 6:-0.430463 7:-0.780896 8:-0.153252 9:-0.328739 10:-0.247222 11:-0.611251 12:-0.907217 13:-0.682407 14:0.0596541 15:-0.832337 16:-0.189517 
-32768 -32768 1:-0.194541 2:0.116432 3:0.136113 4:-0.232692 5:0.153913 6:-0.0780644 7:-0.614611 8:0.0238033 9:-0.400229 10:-0.378159 11:-0.425573 12:-0.856784 13:-0.499559 14:0.246564 15:-0.937934 16:-0.589443 
-0 -32768 1:-0.027579 2:-0.585039 3:-0.74319 4:-0.940401 5:-0.758189 6:-0.32026 7:-0.727469 8:-0.736325 9:-0.240999 10:0.0451144 11:0.118242 12:-0.298105 13:-0.106444 14:0.696756 15:-0.591955 16:0.541085 
-32768 -32768 1:-0.0581647 2:-0.39864 3:-0.454945 4:-0.799395 5:-0.474845 6:-0.110788 7:-0.626289 8:-0.540498 9:-0.308609 10:0.251639 11:-0.213524 12:-0.718445 13:-0.434879 14:0.142515 15:-0.828704 16:0.522119 
-32768 -32768 1:0.112434 2:-0.312172 3:0.104129 4:-0.338074 5:0.0789191 6:-0.457545 7:-0.822274 8:-0.0505293 9:-0.244014 10:-0.44349 11:0.587839 12:-0.0367436 13:0.0547806 14:-0.0385575 15:-0.921851 16:-0.191827 
-0 -32768 1:-0.0266058 2:-0.293575 3:-0.0865391 4:-0.455006 5:-0.0612138 6:0.363189 7:0.0399979 8:-0.264219 9:-0.253117 10:-0.480146 11:0.507294 12:-0.0976788 13:0.0288337 14:0.136833 15:-0.940151 16:-0.176162 
-32768 -32768 1:-0.20757 2:-0.0555835 3:-0.0458205 4:-0.340898 5:0.069379 6:0.546188 7:-0.0342193 8:-0.262123 9:-0.25876 10:-0.623537 11:-0.459193 12:-0.872333 13:-0.657803 14:0.0515177 15:-0.931796 16:-0.532282 
-0 -32768 1:-0.059302 2:-0.180089 3:-0.179561 4:-0.603751 5:-0.209787 6:-0.220001 7:-0.695395 8:-0.307356 9:-0.29538 10:0.0348639 11:0.17478 12:-0.31648 13:-0.0815429 14:0.291122 15:-0.787579 16:0.0930557 
-32768 -32768 1:-0.215101 2:0.25853 3:0.0825388 4:-0.167182 5:0.275839 6:0.608974 7:0.36579 8:-0.0603365 9:-0.327171 10:-0.507347 11:-0.503182 12:-0.844569 13:-0.531193 14:-0.00782438 15:-0.85415 16:-0.704484 
-32768 -32768 1:-0.0608137 2:-0.52284 3:-0.7466 4:-0.935743 5:-0.738375 6:-0.21344 7:-0.584503 8:-0.762769 9:-0.352846 10:0.0613253 11:0.161227 12:-0.483653 13:-0.00053967 14:0.121804 15:-0.966873 16:-0.25927 
-0 -32768 1:-0.0611198 2:-0.471299 3:-0.541892 4:-0.859299 5:-0.577748 6:-0.348004 7:-0.81638 8:-0.634358 9:0.0811431 10:-0.989938 11:-0.244236 12:-0.713023 13:0.296062 14:0.166521 15:-0.957535 16:0.106278 
-0 -32768 1:-0.233066 2:0.5236 3:0.547475 4:0.313575 5:0.537959 6:-0.112278 7:-0.537949 8:0.618625 9:-0.423955 10:-0.31423 11:-0.607056 12:-0.878721 13:-0.530732 14:0.435524 15:-0.737392 16:-0.485896 
-0 -32768 1:-0.234463 2:0.200079 3:0.220939 4:-0.0454494 5:0.306757 6:0.00128216 7:-0.609462 8:0.0861335 9:-0.36892 10:-0.32752 11:-0.694434 12:-0.943685 13:-0.691485 14:0.271524 15:-0.945906 16:-0.402965 
-0 -32768 1:-0.0236079 2:-0.598632 3:-0.359107 4:-0.688233 5:-0.303006 6:0.541009 7:-0.0944429 8:-0.604429 9:-0.236714 10:-0.75887 11:0.390455 12:-0.12595 13:0.189261 14:0.705417 15:-0.596065 16:-0.102256 
-0 -32768 1:-0.044772 2:-0.570781 3:-0.721188 4:-0.91934 5:-0.704629 6:0.300598 7:-0.0605477 8:-0.765534 9:-0.292747 10:-0.0242988 11:0.311141 12:-0.0066211 13:0.106818 14:0.589881 15:-0.717979 16:-0.00385874 
-0 -32768 1:-0.238095 2:-0.266688 3:-0.592484 4:-0.866053 5:-0.521748 6:-0.230294 7:-0.731761 8:-0.606072 9:-0.306069 10:0.0121637 11:-0.0911108 12:-0.424006 13:-0.20071 14:0.0972716 15:-0.802796 16:0.273883 
-0 -32768 1:-0.239829 2:-0.157444 3:-0.372304 4:-0.726769 5:-0.295352 6:-0.0978832 7:-0.74328 8:-0.513822 9:-0.408568 10:-0.0586558 11:-0.22856 12:-0.618451 13:-0.23422 14:0.376279 15:-0.86778 16:-0.195921 
-32768 -32768 1:-0.022537 2:0.0232851 3:0.411851 4:0.224543 5:0.469999 6:0.166166 7:-0.328275 8:0.271719 9:-0.278516 10:-0.599537 11:-0.49797 12:-0.86379 13:-0.646213 14:0.136454 15:-0.784319 16:-0.573019 
-32768 -32768 1:-0.0631544 2:-0.27287 3:-0.104076 4:-0.393405 5:-0.00390625 6:0.607664 7:0.212453 8:-0.362639 9:-0.304276 10:-0.649855 11:-0.0659532 12:-0.671242 13:-0.400247 14:-0.0175922 15:-0.954549 16:-0.763632 
-32768 -32768 1:-0.0637947 2:-0.321554 3:-0.427473 4:-0.786293 5:-0.449147 6:-0.347018 7:-0.766815 8:-0.483641 9:-0.311089 10:0.00263882 11:-0.0741991 12:-0.601506 13:-0.281682 14:-0.135029 15:-0.821493 16:0.0227609 
-0 -32768 1:-0.0407236 2:-0.60519 3:-0.693169 4:-0.909028 5:-0.678609 6:0.140258 7:-0.420902 8:-0.747369 9:-0.275514 10:-0.408348 11:-0.0272735 12:-0.370753 13:-0.165512 14:0.406175 15:-0.481175 16:-0.230178 
-32768 -32768 1:-0.0660047 2:-0.503045 3:-0.760272 4:-0.930786 5:-0.69911 6:0.698703 7:0.472667 8:-0.831813 9:-0.307203 10:-0.166437 11:-0.243602 12:-0.727457 13:-0.319687 14:0.245585 15:-0.814581 16:-0.363475 
-32768 -32768 1:-0.27739 2:-0.393553 3:-0.630302 4:-0.883778 5:-0.59637 6:-0.0484225 7:-0.679116 8:-0.676259 9:-0.161884 10:-0.236122 11:-0.739367 12:-0.944298 13:-0.756937 14:0.0566672 15:-0.905499 16:0.145547 
-32768 -32768 1:0.197623 2:-0.565169 3:-0.418857 4:-0.737182 5:-0.371058 6:0.211838 7:-0.41796 8:-0.581716 9:-0.244972 10:-0.201577 11:-0.489861 12:-0.875966 13:-0.664493 14:0.251938 15:-0.926687 16:0.0821962 
-32768 -32768 1:-0.0452341 2:-0.568682 3:-0.717734 4:-0.926469 5:-0.722258 6:-0.102355 7:-0.648965 8:-0.759976 9:-0.29704 10:-0.204002 11:0.512401 12:-0.20218 13:-0.0162842 14:0.141037 15:-0.951516 16:-0.233667 
-0 -32768 1:-0.0452883 2:0.042178 3:0.138753 4:-0.229581 5:0.136543 6:-0.155017 7:-0.641839 8:0.155115 9:-0.406381 10:-0.29388 11:-0.151079 12:-0.482059 13:-0.1061 14:1 15:0.0591013 16:-0.600591 
-32768 -32768 1:-0.0675545 2:-0.303149 3:-0.269628 4:-0.651283 5:-0.273208 6:-0.0184799 7:-0.596667 8:-0.39183 9:-0.330207 10:-0.681363 11:-0.605629 12:-0.875906 13:-0.637709 14:0.362086 15:-0.710055 16:-0.819875 
-32768 -32768 1:-0.29369 2:-0.0745832 3:-0.194783 4:-0.622721 5:-0.189241 6:-0.391466 7:-0.84 8:-0.346278 9:-0.260488 10:-0.0829056 11:-0.67983 12:-0.861271 13:-0.641826 14:-0.954806 15:0.861774 16:0.257199 
-32768 -32768 1:-0.045378 2:-0.632544 3:-0.839282 4:-0.963233 5:-0.826738 6:0.173406 7:-0.124041 8:-0.874292 9:-0.277292 10:-0.523389 11:0.0712948 12:-0.575663 13:-0.326817 14:0.0500469 15:-0.955328 16:-0.459784 
-32768 -32768 1:-0.0454439 2:-0.498568 3:-0.545267 4:-0.850454 5:-0.562025 6:-0.11582 7:-0.696387 8:-0.663083 9:-0.286381 10:-0.237245 11:0.185386 12:-0.465295 13:-0.218872 14:0.0309749 15:-0.943573 16:-0.182103 
-32768 -32768 1:-0.0694861 2:0.0257405 3:0.165217 4:-0.225127 5:0.143889 6:-0.0498592 7:-0.577231 8:0.0292913 9:-0.273231 10:-0.669532 11:-0.482591 12:-0.872236 13:-0.659708 14:-0.0893618 15:-0.878543 16:-0.625071 
-9844.958636976889 -32768 1:-0.0455825 2:-0.512336 3:-0.597499 4:-0.881694 5:-0.622139 6:-0.31666 7:-0.787127 8:-0.665497 9:-0.1924 10:-0.549291 11:0.701008 12:0.0625316 13:0.154423 14:0.250406 15:-0.937466 16:-0.121597 
-0 -32768 1:-0.324903 2:0.0998858 3:-0.190109 4:-0.5695 5:-0.0787025 6:0.49971 7:-0.161699 8:-0.248284 9:-0.456911 10:0.236453 11:-0.348041 12:-0.632646 13:-0.165193 14:0.681071 15:-0.589893 16:0.106123 
-0 -32768 1:-0.0725188 2:-0.550749 3:-0.754496 4:-0.93155 5:-0.721508 6:0.36167 7:-0.146236 8:-0.833074 9:-0.363291 10:0.0534406 11:0.900766 12:0.252444 13:0.351438 14:0.240808 15:-0.950909 16:-0.209961 
-0 -32768 1:-0.340455 2:-0.437102 3:-0.577585 4:-0.848059 5:-0.549707 6:-0.0432002 7:-0.559825 8:-0.653962 9:1 10:-0.857174 11:-0.127662 12:-0.724528 13:-0.0403364 14:-0.0317944 15:-0.950548 16:-0.100167 
-0 -32768 1:-0.341409 2:-0.218349 3:-0.416261 4:-0.748818 5:-0.354455 6:0.153473 7:-0.48362 8:-0.513398 9:-0.520298 10:0.343452 11:-0.856588 12:-0.979916 13:-0.652616 14:0.23132 15:-0.937519 16:0.469419 
-32768 -32768 1:-0.0730682 2:-0.379559 3:-0.370644 4:-0.763367 5:-0.421073 6:-0.426512 7:-0.858677 8:-0.499733 9:-0.112911 10:-0.58183 11:0.0026829 12:-0.554924 13:-0.228545 14:0.0518714 15:-0.946203 16:-0.156497 
-32768 -32768 1:-0.0107318 2:-0.490788 3:-0.533196 4:-0.815035 5:-0.472573 6:-0.146545 7:-0.574134 8:-0.41527 9:-0.275029 10:-0.383476 11:-0.602327 12:-0.873993 13:-0.66281 14:-0.247451 15:-0.618369 16:-0.209427 
-32768 -32768 1:-0.0756635 2:-0.487311 3:-0.779112 4:-0.951542 5:-0.764037 6:-0.135423 7:-0.642559 8:-0.775353 9:-0.29442 10:-0.426864 11:-0.264531 12:-0.658433 13:-0.385326 14:0.28288 15:-0.826543 16:-0.446095 
-0 -32768 1:-0.0785623 2:-0.190101 3:-0.155084 4:-0.568589 5:-0.176449 6:-0.216246 7:-0.701792 8:-0.267095 9:-0.445006 10:0.275449 11:-0.148182 12:-0.704406 13:-0.12918 14:0.119355 15:-0.920873 16:0.0388783 
-4680.601815440328 -32768 1:-0.413713 2:0.457213 3:-0.491044 4:-0.796035 5:-0.0288995 6:-0.0836256 7:-0.615165 8:-0.193559 9:-0.33985 10:-0.133143 11:-0.606885 12:-0.896996 13:-0.592478 14:-0.135738 15:-0.633733 16:-0.159965 
-32768 -32768 1:-0.0465427 2:-0.600916 3:-0.778102 4:-0.945795 5:-0.769578 6:0.0519955 7:-0.485907 8:-0.855239 9:-0.274456 10:-0.333996 11:0.422552 12:-0.201745 13:-0.0503458 14:0.162837 15:-0.883477 16:-0.093419 
-0 -23049.40926519032 1:-0.425848 2:0.283356 3:0.121587 4:-0.0714999 5:0.39161 6:0.362526 7:-0.337364 8:-0.160833 9:-0.43131 10:0.106094 11:-0.428124 12:-0.831765 13:-0.393325 14:0.149423 15:-0.965804 16:0.00961945 
-0 -32768 1:-0.427817 2:-0.00377137 3:-0.590544 4:-0.868526 5:-0.417707 6:-0.33258 7:-0.790804 8:-0.423707 9:-0.22923 10:-0.331455 11:0.0169396 12:-0.525623 13:-0.276352 14:0.377725 15:-0.66762 16:-0.0304658 
-0 -32768 1:-0.0864636 2:-0.428585 3:-0.448677 4:-0.795459 5:-0.46095 6:0.0893395 7:-0.516053 8:-0.657296 9:-0.298611 10:-0.229749 11:-0.244135 12:-0.624536 13:-0.36492 14:0.478378 15:-0.682891 16:-0.0918588 
-0 -32768 1:-0.086828 2:-0.239018 3:-0.357609 4:-0.713196 5:-0.33632 6:-0.00401063 7:-0.523222 8:-0.429074 9:-0.349692 10:0.286445 11:0.688377 12:0.16404 13:0.264793 14:0.196201 15:-0.936165 16:0.24345 
-32768 -32768 1:0.00147303 2:0.314258 3:0.140776 4:-0.271153 5:0.102694 6:-0.825585 7:-0.808614 8:0.603296 9:-0.201794 10:-0.47507 11:-0.13228 12:-0.714439 13:-0.447285 14:0.163939 15:-0.943509 16:-0.233013 
-28709.22295882418 -32768 1:-0.047539 2:-0.576897 3:-0.760416 4:-0.93834 5:-0.752449 6:-0.0459663 7:-0.501917 8:-0.786897 9:-0.234829 10:-0.675948 11:0.183242 12:-0.388349 13:-0.038154 14:0.189391 15:-0.916267 16:-0.132388 
-32768 -32768 1:-0.092482 2:-0.459878 3:-0.716431 4:-0.925132 5:-0.708339 6:-0.115192 7:-0.583545 8:-0.68638 9:-0.202145 10:-0.627007 11:-0.233111 12:-0.704675 13:-0.39208 14:0.0852215 15:-0.859109 16:-0.308478 
-32768 -32768 1:-0.0948806 2:-0.346471 3:-0.478736 4:-0.798975 5:-0.470345 6:-0.202449 7:-0.664833 8:-0.50624 9:-0.407801 10:-0.213827 11:0.405667 12:-0.277373 13:-0.0224231 14:0.198713 15:-0.967509 16:-0.373617 
-32768 -32768 1:0.0102058 2:-0.737861 3:-0.868622 4:-0.975239 5:-0.84256 6:-0.259453 7:-0.662189 8:-0.851929 9:-0.27791 10:-0.316639 11:-0.756286 12:-0.931744 13:-0.76785 14:0.679237 15:-0.0851711 16:-0.133425 
-32768 -32768 1:-0.0960633 2:-0.294594 3:-0.284613 4:-0.6792 5:-0.306492 6:-0.12549 7:-0.574193 8:-0.398637 9:-0.442845 10:0.25785 11:-0.71175 12:-0.950862 13:-0.677083 14:0.51135 15:-0.84872 16:0.427123 
-32768 -32768 1:-0.0427716 2:-0.308687 3:-0.21067 4:-0.634955 5:-0.254592 6:-0.214776 7:-0.65475 8:-0.357487 9:-0.278931 10:-0.121715 11:-0.0164137 12:-0.477515 13:-0.242704 14:0.16161 15:-0.773376 16:0.0869593 
-0 -32768 1:-0.0481939 2:-0.518175 3:-0.461142 4:-0.749364 5:-0.401598 6:0.583017 7:-0.133122 8:-0.685471 9:-0.320376 10:0.130138 11:0.0987004 12:-0.502265 13:-0.244839 14:0.530996 15:-0.653473 16:0.349491 
-0 -32768 1:-0.0967623 2:-0.0666756 3:-0.167765 4:-0.551232 5:-0.113066 6:0.432323 7:0.049948 8:-0.338992 9:-0.288405 10:0.057122 11:0.978754 12:0.998366 13:0.547242 14:0.477123 15:-0.738884 16:0.284919 
-32768 -32768 1:-0.0373748 2:-0.629261 3:-0.781506 4:-0.94826 5:-0.778241 6:-0.139288 7:-0.441879 8:-0.778808 9:-0.279473 10:-0.348737 11:-0.316474 12:-0.729107 13:-0.473194 14:0.0104894 15:-0.847022 16:-0.231286 
-32768 -32768 1:-0.0372888 2:-0.648458 3:-0.70524 4:-0.909403 5:-0.677577 6:0.450202 7:0.102428 8:-0.793518 9:-0.285029 10:-0.280202 11:0.160624 12:-0.421791 13:-0.182058 14:0.226164 15:-0.894524 16:-0.266638 
-0 -32768 1:-0.0998061 2:-0.413939 3:-0.458009 4:-0.772704 5:-0.426715 6:0.292546 7:-0.307132 8:-0.635985 9:-0.146755 10:-0.455684 11:-0.105263 12:-0.634693 13:-0.212676 14:-0.119021 15:-0.78248 16:0.18204 
-12181.48601149463 -32768 1:-0.0999849 2:0.182354 3:0.332281 4:0.162041 5:0.430628 6:0.175409 7:-0.39054 8:0.208533 9:-0.261048 10:-0.605664 11:-0.600413 12:-0.905331 13:-0.707901 14:0.285652 15:-0.75096 16:-0.475104 
-32768 -32768 1:0.0151836 2:-0.55585 3:-0.516531 4:-0.817663 5:-0.485187 6:0.0842853 7:-0.352722 8:-0.545881 9:-0.26798 10:-0.515486 11:-0.106414 12:-0.615535 13:-0.361545 14:0.0319029 15:-0.906371 16:-0.373681 
-32768 -32768 1:-0.0369647 2:-0.489353 3:-0.554603 4:-0.835173 5:-0.535363 6:0.155852 7:-0.523649 8:-0.618605 9:-0.440477 10:0.25485 11:-0.649569 12:-0.93684 13:-0.631549 14:-0.170474 15:-0.810283 16:0.390604 
-0 -32768 1:-0.102003 2:0.337193 3:0.609827 4:0.386959 5:0.575938 6:-0.143578 7:-0.686553 8:0.406425 9:-0.315673 10:-0.344077 11:-0.469167 12:-0.828292 13:-0.541751 14:0.217166 15:-0.781882 16:-0.401266 
-19565.68391401121 -32768 1:-0.105136 2:-0.23478 3:-0.619914 4:-0.859715 5:-0.524072 6:-0.169166 7:-0.508536 8:-0.527495 9:-0.333707 10:0.152068 11:0.0338857 12:-0.43883 13:-0.0933489 14:-0.0258271 15:-0.905824 16:0.0901278 
-32768 -32768 1:-0.0492462 2:-0.5102 3:-0.614154 4:-0.873808 5:-0.599796 6:0.354698 7:-0.0808746 8:-0.748503 9:-0.281967 10:-0.362832 11:-0.298259 12:-0.65026 13:-0.378742 14:0.659733 15:-0.323234 16:-0.346583 
-7826.39557804449 -32768 1:0.0216941 2:-0.452806 3:-0.515311 4:-0.843344 5:-0.544059 6:-0.555875 7:-0.820233 8:-0.482471 9:0.0367194 10:-0.713183 11:-0.172523 12:-0.68399 13:-0.0646048 14:-0.142862 15:-0.840587 16:0.0650993 
-0 -32768 1:-0.693193 2:0.861897 3:0.578759 4:0.248697 5:0.65601 6:-0.438382 7:-0.871266 8:0.529749 9:-0.362462 10:-0.44014 11:-0.364506 12:-0.810352 13:-0.531372 14:0.0991385 15:-0.90854 16:-0.514668 
-32768 -32768 1:-0.0493418 2:-0.611224 3:-0.782651 4:-0.952841 5:-0.79498 6:-0.348787 7:-0.787707 8:-0.820931 9:-0.283498 10:-0.333265 11:0.292384 12:-0.381346 13:-0.173102 14:0.0510907 15:-0.921485 16:-0.181483 
-0 -32768 1:-0.108954 2:-0.0641095 3:-0.212122 4:-0.566393 5:-0.158887 6:0.270443 7:0.160393 8:-0.202427 9:-0.276306 10:-0.0373936 11:0.739084 12:0.60269 13:0.372628 14:0.632146 15:-0.641735 16:0.287376 
-0 -32768 1:-0.706851 2:-0.121418 3:-0.632604 4:-0.901278 5:-0.503983 6:-0.516015 7:-0.903697 8:-0.535663 9:-0.727618 10:0.138767 11:-0.292156 12:-0.774246 13:-0.283399 14:-0.0969772 15:-0.917112 16:-0.0195295 
-0 -32768 1:-0.721958 2:0.277315 3:0.231291 4:-0.168512 5:0.24659 6:-0.209601 7:-0.771143 8:0.0681529 9:-0.374104 10:-0.594601 11:-0.733577 12:-0.954191 13:-0.794398 14:0.423134 15:-0.861243 16:-0.652896 
-32768 -32768 1:-0.0496228 2:-0.492039 3:-0.736787 4:-0.920981 5:-0.706978 6:0.259137 7:-0.0727707 8:-0.67469 9:-0.276848 10:-0.545187 11:-0.167303 12:-0.71267 13:-0.45833 14:-0.0233213 15:-0.925213 16:-0.471039 
-0 -32768 1:-0.727411 2:-0.0818593 3:-0.624383 4:-0.878738 5:-0.429696 6:-0.463368 7:-0.944441 8:-0.541198 9:-0.357275 10:0.119783 11:-0.782456 12:-0.954781 13:-0.797333 14:-0.0404908 15:-0.71813 16:0.407365 
-32768 -32768 1:-0.0358734 2:-0.586941 3:-0.520713 4:-0.827496 5:-0.519897 6:0.231834 7:-0.392246 8:-0.710629 9:-0.298677 10:-0.101794 11:-0.133994 12:-0.68884 13:-0.345454 14:0.20924 15:-0.931383 16:-0.15718 
-26656.43977826221 -32768 1:-0.0358451 2:-0.486884 3:-0.414981 4:-0.743153 5:-0.390128 6:0.298981 7:0.0402152 8:-0.549634 9:-0.276042 10:-0.257429 11:0.050382 12:-0.398309 13:-0.186007 14:0.41673 15:-0.813511 16:-0.0342677 
-32768 -32768 1:-0.042754 2:0.0489357 3:0.285009 4:-0.0888996 5:0.246641 6:-0.161938 7:-0.653261 8:0.170799 9:-0.283177 10:-0.548815 11:-0.368185 12:-0.784944 13:-0.533132 14:0.388857 15:-0.706405 16:-0.55692 
-32768 -32768 1:-0.114111 2:-0.398958 3:-0.560661 4:-0.862518 5:-0.572751 6:-0.321291 7:-0.703084 8:-0.617846 9:-0.442744 10:-0.0401783 11:-0.629619 12:-0.918522 13:-0.435274 14:0.0870546 15:-0.959942 16:-0.262743 
-0 -32768 1:0.0296029 2:-0.255594 3:0.231216 4:-0.239942 5:0.13127 6:-0.272465 7:-0.817621 8:-0.181399 9:-0.0564088 10:-0.511941 11:0.0659499 12:-0.50705 13:-0.098152 14:0.479348 15:-0.784594 16:0.139067 
-32768 -32768 1:-0.0354601 2:-0.56546 3:-0.476395 4:-0.783234 5:-0.443592 6:0.325935 7:-0.167151 8:-0.624259 9:-0.276461 10:-0.367973 11:-0.325844 12:-0.673707 13:-0.418414 14:-0.026637 15:-0.750375 16:-0.208057 
-13512.41272164874 -32768 1:-0.116781 2:0.115715 3:0.567934 4:0.240329 5:0.479948 6:-0.250597 7:-0.807428 8:0.133458 9:-0.304498 10:-0.454112 11:0.106819 12:-0.565238 13:-0.31226 14:0.260097 15:-0.955828 16:-0.424736 
-10054.72928627224 -32768 1:-0.783915 2:0.329904 3:0.097743 4:-0.321413 5:0.184215 6:-0.358966 7:-0.877807 8:-0.0226421 9:-0.479112 10:-0.480338 11:-0.674409 12:-0.938537 13:-0.652563 14:-0.0707217 15:-0.932797 16:-0.670961 
-32768 -32768 1:-0.1209 2:-0.228666 3:-0.501626 4:-0.834773 5:-0.476015 6:-0.342803 7:-0.806276 8:-0.537637 9:-0.250787 10:-0.21663 11:-0.225494 12:-0.638586 13:-0.361487 14:-0.143176 15:-0.833323 16:0.203069 
-0 -32768 1:-0.121012 2:-0.259729 3:-0.468269 4:-0.741655 5:-0.347701 6:0.444009 7:-0.124486 8:-0.567577 9:-0.318361 10:0.00658894 11:0.73423 12:0.0756406 13:0.144573 14:0.100153 15:-0.965002 16:0.0706081 
-0 -32768 1:-0.122955 2:-0.484387 3:-0.742253 4:-0.926117 5:-0.690417 6:0.341113 7:-0.255957 8:-0.797034 9:-0.419547 10:-0.0701453 11:-0.566117 12:-0.873946 13:-0.380463 14:0.391945 15:-0.889645 16:-0.321118 
-0 -24265.35719915428 1:-0.123377 2:-0.344105 3:-0.477687 4:-0.799638 5:-0.432409 6:0.171765 7:-0.484902 8:-0.679511 9:-0.113029 10:-0.242552 11:0.753384 12:0.506046 13:0.654666 14:0.331185 15:-0.845762 16:1 
-32768 -32768 1:-0.0344132 2:-0.39096 3:-0.310351 4:-0.685178 5:-0.312769 6:0.0339294 7:-0.295344 8:-0.400813 9:-0.290514 10:-0.0515253 11:-0.133066 12:-0.617454 13:-0.324082 14:-0.115905 15:-0.802816 16:0.0217139 
